
/* Species #1 : (Size 11) (AF 7.69882) (Age 27)  */


/* Organism #0 Fitness: 9 Error: 1 */
genomestart 0
trait 1 0.1 0 0.0324679 0.123223 0.00768948 0.0155676 0.043595 0 
trait 2 0.231362 0 0 0.0823517 0.0428402 0 0.00689129 0 
trait 3 0.26538 0.0127485 0.118933 0 0 0.0505615 0.0605231 0.0452605 
node 1 1 1 3
node 2 1 1 1
node 3 1 1 1
node 4 1 0 2
gene 1 1 4 -8.12124 0 1 -8.12124 1
gene 2 2 4 15.6042 0 2 15.6042 1
gene 3 3 4 -14.9367 0 3 -14.9367 1
genomeend 0

/* Organism #1 Fitness: 4 Error: 2 */
genomestart 1
trait 1 0.1 0.0176024 0.0284094 0.123223 0.0467332 0.0155676 0.0381457 0 
trait 2 0.248537 0.0161851 0 0.0772047 0 0.00426913 0.00689129 0 
trait 3 0.26538 0.0127485 0.118933 0 0 0.0505615 0.0605231 0.0452605 
node 1 1 1 3
node 2 2 1 1
node 3 1 1 1
node 4 1 0 2
gene 1 1 4 -8.49789 0 1 -8.49789 1
gene 2 2 4 -2.31922 0 2 -2.31922 1
gene 3 3 4 -15.0105 0 3 -15.0105 1
genomeend 1

/* Organism #2 Fitness: 9 Error: 1 */
genomestart 2
trait 1 0.1 0.0176024 0.0284094 0.123223 0.0467332 0.0155676 0.0381457 0 
trait 2 0.216902 0.0105892 0 0.0772047 0.0401627 0.00426913 0.00689129 0 
trait 3 0.26538 0.0127485 0.118933 0 0 0.0505615 0.0605231 0.0452605 
node 1 1 1 3
node 2 1 1 1
node 3 1 1 1
node 4 1 0 2
gene 1 1 4 -7.48537 0 1 -7.48537 1
gene 2 2 4 16.4496 0 2 16.4496 1
gene 3 3 4 -15.5056 0 3 -15.5056 1
genomeend 2

/* Organism #3 Fitness: 8.99954 Error: 1.00008 */
genomestart 3
trait 1 0.1 0.00440061 0.0314533 0.123223 0.0174504 0.0155676 0.0422327 0 
trait 2 0.227747 0.0026473 0 0.081065 0.0421708 0.00106728 0.00689129 0 
trait 3 0.26538 0.0127485 0.118933 0 0 0.0505615 0.0605231 0.0452605 
node 1 1 1 3
node 2 1 1 1
node 3 1 1 1
node 4 1 0 2
gene 1 1 4 -1.96933 0 1 -1.96933 1
gene 2 2 4 15.2993 0 2 15.2993 1
gene 3 3 4 -15.5903 0 3 -15.5903 1
genomeend 3

/* Organism #4 Fitness: 9 Error: 1 */
genomestart 4
trait 1 0.1 0.00880122 0.0304387 0.123223 0.0272113 0.0155676 0.0408703 0 
trait 2 0.224132 0.00529461 0 0.0797782 0.0415014 0.00213456 0.00689129 0 
trait 3 0.26538 0.0127485 0.118933 0 0 0.0505615 0.0605231 0.0452605 
node 1 1 1 3
node 2 1 1 1
node 3 1 1 1
node 4 1 0 2
gene 1 1 4 -9.19547 0 1 -9.19547 1
gene 2 2 4 16.5748 0 2 16.5748 1
gene 3 3 4 -14.0824 0 3 -14.0824 1
genomeend 4

/* Organism #5 Fitness: 4 Error: 2 */
genomestart 5
trait 1 0.1 0.0176024 0.0284094 0.123223 0.0467332 0.0155676 0.0381457 0 
trait 2 0.216902 0.0105892 0 0.0772047 0.0401627 0.00426913 0.00689129 0 
trait 3 0.26538 0.0127485 0.118933 0 0 0.0505615 0.0605231 0.0452605 
node 1 1 1 3
node 2 1 1 1
node 3 1 1 1
node 4 1 0 2
gene 1 1 4 -8.32857 0 1 -8.32857 1
gene 2 2 4 18.6818 0 2 18.6818 1
gene 3 3 4 -0.702705 0 3 -0.702705 1
genomeend 5

/* Organism #6 Fitness: 9 Error: 1 */
genomestart 6
trait 1 0.1 0 0.0324679 0.123223 0.00768948 0.0155676 0.043595 0 
trait 2 0.231362 0 0 0.0823517 0.0428402 0 0.00689129 0 
trait 3 0.26538 0.0127485 0.118933 0 0 0.0505615 0.0605231 0.0452605 
node 1 1 1 3
node 2 1 1 1
node 3 1 1 1
node 4 1 0 2
gene 1 1 4 -8.86026 0 1 -8.86026 1
gene 2 2 4 14.1303 0 2 14.1303 1
gene 3 3 4 -13.2107 0 3 -13.2107 1
genomeend 6

/* Organism #7 Fitness: 9 Error: 1 */
genomestart 7
trait 1 0.1 0.00880122 0.0304387 0.123223 0.0272113 0.0155676 0.0408703 0 
trait 2 0.224132 0.00529461 0 0.0797782 0.0415014 0.00213456 0.00689129 0 
trait 3 0.26538 0.0127485 0.118933 0 0 0.0505615 0.0605231 0.0452605 
node 1 1 1 3
node 2 1 1 1
node 3 1 1 1
node 4 1 0 2
gene 1 1 4 -8.7955 0 1 -8.7955 1
gene 2 2 4 13.9905 0 2 13.9905 1
gene 3 3 4 -16.8652 0 3 -16.8652 1
genomeend 7

/* Organism #8 Fitness: 9 Error: 1 */
genomestart 8
trait 1 0.1 0.00880122 0.0304387 0.123223 0.0272113 0.0155676 0.0408703 0 
trait 2 0.224132 0.00529461 0 0.0797782 0.0415014 0.00213456 0.00689129 0 
trait 3 0.26538 0.0127485 0.118933 0 0 0.0505615 0.0605231 0.0452605 
node 1 1 1 3
node 2 1 1 1
node 3 1 1 1
node 4 1 0 2
gene 1 1 4 -8.12124 0 1 -8.12124 1
gene 2 2 4 15.6042 0 2 15.6042 1
gene 3 3 4 -16.2775 0 3 -16.2775 1
genomeend 8

/* Organism #9 Fitness: 9 Error: 1 */
genomestart 9
trait 1 0.366458 0.00440061 0 0.123223 0 0.172256 0 0.630345 
trait 2 0.227747 0.0026473 0 0.081065 0.0421708 0.00106728 0.00689129 0 
trait 3 0.26538 0.0127485 0.118933 0 0 0.0505615 0.0605231 0.0452605 
node 1 1 1 3
node 2 1 1 1
node 3 1 1 1
node 4 1 0 2
gene 1 1 4 -10.2461 0 1 -10.2461 1
gene 2 2 4 15.9552 0 2 15.9552 1
gene 3 3 4 -13.9214 0 3 -13.9214 1
genomeend 9

/* Organism #10 Fitness: 4.68745 Error: 1.83495 */
genomestart 10
trait 1 0.1 0 0.0324679 0.123223 0.00768948 0.0155676 0.043595 0 
trait 2 0.0578406 0 0.218629 0.0205879 0.0428402 0.743831 0.582132 0 
trait 3 0.26538 0.0127485 0.118933 0 0 0.0505615 0.0605231 0.0452605 
node 1 1 1 3
node 2 1 1 1
node 3 1 1 1
node 4 1 0 2
gene 1 1 4 0.329206 0 1 0.329206 1
gene 2 2 4 2.82419 0 2 2.82419 1
gene 3 3 4 -15.1129 0 3 -15.1129 1
genomeend 10

/* Species #2 : (Size 10) (AF 8.5) (Age 21)  */


/* Organism #11 Fitness: 9 Error: 1 */
genomestart 11
trait 1 0.1 0.414928 0 0 0 0.222754 0.00312198 0 
trait 2 0.2 0 0 0 0 0 0 0 
trait 3 0.3 0.0582787 0.188992 0 0 0.124459 0.14898 0 
node 1 1 1 3
node 2 1 1 1
node 3 1 1 1
node 4 3 0 2
node 21 1 0 0
gene 1 1 4 -9.04216 0 1 -9.04216 1
gene 2 2 4 14.6275 0 2 14.6275 1
gene 1 3 4 15.8875 0 3 15.8875 1
gene 1 3 21 6.31501 0 42 6.31501 1
gene 1 21 4 3.24247 0 43 3.24247 1
genomeend 11

/* Organism #12 Fitness: 9 Error: 1 */
genomestart 12
trait 1 0.1 0.414928 0 0 0 0.222754 0.00312198 0 
trait 2 0.2 0 0 0 0 0 0 0 
trait 3 0.3 0.0582787 0.188992 0 0 0.124459 0.14898 0 
node 1 1 1 3
node 2 1 1 1
node 3 1 1 1
node 4 3 0 2
node 21 1 0 0
gene 1 1 4 -6.9899 0 1 -6.9899 1
gene 2 2 4 13.3468 0 2 13.3468 1
gene 1 3 4 14.2633 0 3 14.2633 1
gene 1 3 21 3.66524 0 42 3.66524 1
gene 1 21 4 0.555507 0 43 0.555507 1
gene 1 2 21 -1.82762 0 154 -1.82762 1
genomeend 12

/* Organism #13 Fitness: 9 Error: 1 */
genomestart 13
trait 1 0.1 0.414928 0 0 0 0.222754 0.00312198 0 
trait 2 0.2 0 0 0 0 0 0 0 
trait 3 0.3 0.0582787 0.188992 0 0 0.124459 0.14898 0 
node 1 1 1 3
node 2 1 1 1
node 3 1 1 1
node 4 3 0 2
node 21 1 0 0
gene 1 1 4 -7.20037 0 1 -7.20037 1
gene 2 2 4 14.6991 0 2 14.6991 1
gene 1 3 4 18.2167 0 3 18.2167 1
gene 1 3 21 5.24318 0 42 5.24318 1
gene 1 21 4 5.71171 0 43 5.71171 1
genomeend 13

/* Organism #14 Fitness: 9 Error: 1 */
genomestart 14
trait 1 0.1 0.414928 0 0 0 0.222754 0.00312198 0 
trait 2 0.2 0 0 0 0 0 0 0 
trait 3 0.3 0.0582787 0.188992 0 0 0.124459 0.14898 0 
node 1 1 1 3
node 2 1 1 1
node 3 1 1 1
node 4 3 0 2
node 21 1 0 0
gene 1 1 4 -8.89393 0 1 -8.89393 1
gene 2 2 4 13.5885 0 2 13.5885 1
gene 1 3 4 13.2335 0 3 13.2335 1
gene 1 3 21 7.16534 0 42 7.16534 1
gene 1 21 4 5.04166 0 43 5.04166 1
genomeend 14

/* Organism #15 Fitness: 9 Error: 1 */
genomestart 15
trait 1 0.1 0.414928 0 0 0 0.222754 0.00312198 0 
trait 2 0.2 0 0 0 0 0 0 0 
trait 3 0.3 0.0582787 0.188992 0 0 0.124459 0.14898 0 
node 1 1 1 3
node 2 1 1 1
node 3 3 1 1
node 4 3 0 2
node 21 1 0 0
gene 1 1 4 -11.3979 0 1 -11.3979 1
gene 2 2 4 14.2848 0 2 14.2848 1
gene 1 3 4 16.9229 0 3 16.9229 1
gene 1 3 21 6.95276 0 42 6.95276 1
gene 1 21 4 3.24247 0 43 3.24247 1
genomeend 15

/* Organism #16 Fitness: 9 Error: 1 */
genomestart 16
trait 1 0.1 0.414928 0 0 0 0.222754 0.00312198 0 
trait 2 0.2 0 0 0 0 0 0 0 
trait 3 0.3 0.0582787 0.188992 0 0 0.124459 0.14898 0 
node 1 1 1 3
node 2 1 1 1
node 3 1 1 1
node 4 2 0 2
node 21 1 0 0
gene 1 1 4 -10.6182 0 1 -10.6182 1
gene 2 2 4 16.8413 0 2 16.8413 1
gene 1 3 4 17.3227 0 3 17.3227 1
gene 1 3 21 6.31501 0 42 6.31501 1
gene 1 21 4 5.1854 0 43 5.1854 1
genomeend 16

/* Organism #17 Fitness: 9 Error: 1 */
genomestart 17
trait 1 0.1 0.414928 0 0 0 0.222754 0.00312198 0 
trait 2 0.2 0 0 0 0 0 0 0 
trait 3 0.3 0.0582787 0.188992 0 0 0.124459 0.14898 0 
node 1 1 1 3
node 2 1 1 1
node 3 1 1 1
node 4 3 0 2
node 21 1 0 0
gene 1 1 4 -10.6447 0 1 -10.6447 1
gene 2 2 4 13.2979 0 2 13.2979 1
gene 1 3 4 13.9242 0 3 13.9242 1
gene 1 3 21 2.31929 0 42 2.31929 1
gene 1 21 4 1.83087 0 43 1.83087 1
genomeend 17

/* Organism #18 Fitness: 9 Error: 1 */
genomestart 18
trait 1 0.1 0.414928 0 0 0 0.222754 0.00312198 0 
trait 2 0.2 0 0 0 0 0 0 0 
trait 3 0.3 0.0582787 0.188992 0 0 0.124459 0.14898 0 
node 1 1 1 3
node 2 1 1 1
node 3 1 1 1
node 4 3 0 2
node 21 1 0 0
gene 1 1 4 -10.842 0 1 -10.842 1
gene 2 2 4 15.0002 0 2 15.0002 1
gene 1 3 4 15.7983 0 3 15.7983 1
gene 1 3 21 2.69974 0 42 2.69974 1
gene 1 21 4 2.67787 0 43 2.67787 1
genomeend 18

/* Organism #19 Fitness: 4 Error: 2 */
genomestart 19
trait 1 0.1 0.414928 0 0 0 0.222754 0.00312198 0 
trait 2 0.2 0 0 0 0 0 0 0 
trait 3 0.3 0.0582787 0.188992 0 0 0.124459 0.14898 0 
node 1 1 1 3
node 2 1 1 1
node 3 1 1 1
node 4 3 0 2
node 21 1 0 0
gene 1 1 4 -9.68458 0 1 -9.68458 1
gene 2 2 4 14.6275 0 2 14.6275 1
gene 3 3 4 -2.03398 0 3 -2.03398 1
gene 1 3 21 -0.552874 0 42 -0.552874 1
gene 1 21 4 -1.89113 0 43 -1.89113 1
genomeend 19

/* Organism #20 Fitness: 9 Error: 1 */
genomestart 20
trait 1 0.1 0.414928 0 0 0 0.222754 0.00312198 0 
trait 2 0.2 0 0 0 0 0 0 0 
trait 3 0.3 0.0582787 0.188992 0 0 0.124459 0.14898 0 
node 1 1 1 3
node 2 1 1 1
node 3 1 1 1
node 4 3 0 2
node 21 1 0 0
gene 1 1 4 -8.72332 0 1 -8.72332 1
gene 2 2 4 14.0755 0 2 14.0755 1
gene 1 3 4 15.0754 0 3 15.0754 1
gene 1 3 21 5.14563 0 42 5.14563 1
gene 1 21 4 2.64748 0 43 2.64748 1
genomeend 20

/* Species #3 : (Size 11) (AF 8.05361) (Age 21)  */


/* Organism #21 Fitness: 9 Error: 1 */
genomestart 21
trait 1 0.1 0 0.0170471 0 0.0124589 0.0231704 0.0124879 0 
trait 2 0.245334 0.073283 0 0 0 0.0187012 0 0 
trait 3 0.3 0 0 0 0 0 0 0 
node 1 1 1 3
node 2 1 1 1
node 3 1 1 1
node 4 1 0 2
node 15 1 0 0
gene 1 1 4 -5.92527 0 1 -5.92527 1
gene 2 2 4 7.60078 0 2 7.60078 1
gene 3 3 4 10.391 0 3 10.391 1
gene 2 2 15 5.53104 0 24 5.53104 1
gene 2 15 4 2.67585 0 25 2.67585 1
gene 1 3 15 5.51574 0 30 5.51574 1
genomeend 21

/* Organism #22 Fitness: 9 Error: 1 */
genomestart 22
trait 1 0.1 0 0.0170471 0 0.0124589 0.0231704 0.0124879 0 
trait 2 0.249867 0.0806113 0 0 0 0.0205714 0 0 
trait 3 0.3 0 0 0 0 0 0 0 
node 1 1 1 3
node 2 1 1 1
node 3 1 1 1
node 4 1 0 2
node 15 1 0 0
gene 1 1 4 -3.78845 0 1 -3.78845 1
gene 2 2 4 9.26531 0 2 9.26531 1
gene 3 3 4 7.59342 0 3 7.59342 1
gene 2 2 15 1.58134 0 24 1.58134 1
gene 2 15 4 -0.249685 0 25 -0.249685 1
gene 1 3 15 2.83949 0 30 2.83949 1
genomeend 22

/* Organism #23 Fitness: 9 Error: 1 */
genomestart 23
trait 1 0.1 0 0.0170471 0 0.0124589 0.0231704 0.0124879 0 
trait 2 0.2476 0.0769471 0 0 0 0.0196363 0 0 
trait 3 0.3 0 0 0 0 0 0 0 
node 1 1 1 3
node 2 1 1 1
node 3 1 1 1
node 4 1 0 2
node 15 1 0 0
gene 1 1 4 -3.53037 0 1 -3.53037 1
gene 2 2 4 10.5925 0 2 10.5925 1
gene 3 3 4 11.6856 0 3 11.6856 1
gene 2 2 15 3.14418 0 24 3.14418 1
gene 2 15 4 -0.468432 0 25 -0.468432 1
gene 1 3 15 6.37557 0 30 6.37557 1
genomeend 23

/* Organism #24 Fitness: 9 Error: 1 */
genomestart 24
trait 1 0.1 0 0.0170471 0 0.0124589 0.0231704 0.0124879 0 
trait 2 0.2476 0.0769471 0 0 0 0.0196363 0 0 
trait 3 0.3 0 0 0 0 0 0 0 
node 1 1 1 3
node 2 1 1 1
node 3 1 1 1
node 4 1 0 2
node 15 1 0 0
gene 1 1 4 -5.13041 0 1 -5.13041 1
gene 2 2 4 8.15191 0 2 8.15191 1
gene 3 3 4 9.6255 0 3 9.6255 1
gene 2 2 15 4.42952 0 24 4.42952 1
gene 2 15 4 1.89387 0 25 1.89387 1
gene 1 3 15 5.1812 0 30 5.1812 1
genomeend 24

/* Organism #25 Fitness: 8.99999 Error: 1 */
genomestart 25
trait 1 0.1 0 0.0170471 0 0.0124589 0.0231704 0.0124879 0 
trait 2 0.245334 0.073283 0 0 0 0.0187012 0 0 
trait 3 0.3 0 0 0 0 0 0 0 
node 1 1 1 3
node 2 1 1 1
node 3 1 1 1
node 4 1 0 2
node 15 1 0 0
gene 1 1 4 -8.32179 0 1 -8.32179 1
gene 2 2 4 9.52956 0 2 9.52956 1
gene 3 3 4 11.8021 0 3 11.8021 1
gene 2 2 15 3.94683 0 24 3.94683 1
gene 2 15 4 1.5442 0 25 1.5442 1
gene 1 3 15 4.5661 0 30 4.5661 1
genomeend 25

/* Organism #26 Fitness: 8.99664 Error: 1.00056 */
genomestart 26
trait 1 0.1 0 0.0170471 0 0.0124589 0.0231704 0.0124879 0 
trait 2 0.245334 0.073283 0 0 0 0.0187012 0 0 
trait 3 0.3 0 0 0 0 0 0 0 
node 1 1 1 3
node 2 1 1 1
node 3 1 1 1
node 4 1 0 2
node 15 1 0 0
gene 1 1 4 -8.12469 0 1 -8.12469 1
gene 2 2 4 9.56134 0 2 9.56134 1
gene 3 3 4 10.9124 0 3 10.9124 1
gene 2 2 15 6.83469 0 24 6.83469 1
gene 2 15 4 0.0843326 0 25 0.0843326 1
gene 1 3 15 -2.47122 0 30 -2.47122 1
genomeend 26

/* Organism #27 Fitness: 8.99997 Error: 1 */
genomestart 27
trait 1 0.1 0 0.0170471 0 0.0124589 0.0231704 0.0124879 0 
trait 2 0.249867 0.0806113 0 0 0 0.0205714 0 0 
trait 3 0.3 0 0 0 0 0 0 0 
node 1 1 1 3
node 2 1 1 1
node 3 1 1 1
node 4 1 0 2
node 15 1 0 0
gene 1 1 4 -3.17187 0 1 -3.17187 1
gene 2 2 4 8.70304 0 2 8.70304 1
gene 3 3 4 8.86004 0 3 8.86004 1
gene 2 2 15 2.45809 0 24 2.45809 1
gene 2 15 4 1.36158 0 25 1.36158 1
gene 1 3 15 1.32137 0 30 1.32137 1
genomeend 27

/* Organism #28 Fitness: 8.78282 Error: 1.03642 */
genomestart 28
trait 1 0.1 0 0.0170471 0 0.0124589 0.0231704 0.0124879 0 
trait 2 0.2476 0.0769471 0 0 0 0.0196363 0 0 
trait 3 0.3 0 0 0 0 0 0 0 
node 1 1 1 3
node 2 1 1 1
node 3 1 1 1
node 4 1 0 2
node 15 1 0 0
gene 1 1 4 -3.13187 0 1 -3.13187 1
gene 2 2 4 7.50565 0 2 7.50565 1
gene 3 3 4 1.90332 0 3 1.90332 1
gene 2 2 15 0.740942 0 24 0.740942 1
gene 2 15 4 1.89387 0 25 1.89387 1
gene 1 3 15 6.05292 0 30 6.05292 1
genomeend 28

/* Organism #29 Fitness: 4 Error: 2 */
genomestart 29
trait 1 0.1 0 0.0170471 0 0.0124589 0.0231704 0.0124879 0 
trait 2 0.2476 0.0769471 0 0 0 0.0196363 0 0 
trait 3 0.3 0 0 0 0 0.235619 0.753438 0 
node 1 1 1 3
node 2 1 1 1
node 3 1 1 1
node 4 1 0 2
node 15 1 0 0
gene 1 1 4 -8.69311 0 1 -8.69311 1
gene 2 2 4 -0.712184 0 2 -0.712184 1
gene 3 3 4 -1.01992 0 3 -1.01992 1
gene 2 2 15 1.3541 0 24 1.3541 1
gene 2 15 4 2.33122 0 25 2.33122 1
gene 1 3 15 0.929466 0 30 0.929466 1
genomeend 29

/* Organism #30 Fitness: 4.00704 Error: 1.99824 */
genomestart 30
trait 1 0.1 0 0.0170471 0 0.0124589 0.0231704 0.0124879 0 
trait 2 0.245334 0.073283 0 0 0 0.0187012 0 0 
trait 3 0.3 0 0 0 0 0 0 0 
node 1 1 1 3
node 2 1 1 1
node 3 1 1 1
node 4 1 0 2
node 15 1 0 0
gene 1 1 4 -6.99364 0 1 -6.99364 1
gene 2 2 4 5.3288 0 2 5.3288 1
gene 3 3 4 10.2944 0 3 10.2944 1
gene 2 2 15 6.19854 0 24 6.19854 1
gene 2 15 4 0.376979 0 25 0.376979 1
gene 1 3 15 5.0695 0 30 5.0695 1
genomeend 30

/* Organism #31 Fitness: 8.80323 Error: 1.03298 */
genomestart 31
trait 1 0.1 0 0.0170471 0 0.0124589 0.0231704 0.0124879 0 
trait 2 0.2476 0.0769471 0 0 0 0.0196363 0 0 
trait 3 0.3 0 0 0 0 0 0 0 
node 1 1 1 3
node 2 1 1 1
node 3 1 1 1
node 4 1 0 2
node 15 1 0 0
gene 1 1 4 -5.10748 0 1 -5.10748 1
gene 2 2 4 6.95368 0 2 6.95368 1
gene 3 3 4 8.86004 0 3 8.86004 1
gene 2 2 15 2.33866 0 24 2.33866 1
gene 2 15 4 -1.16011 0 25 -1.16011 1
gene 1 3 15 5.51574 0 30 5.51574 1
genomeend 31

/* Species #5 : (Size 11) (AF 7.64177) (Age 18)  */


/* Organism #32 Fitness: 9 Error: 1 */
genomestart 32
trait 1 0.1 0.00324163 0.0172719 0 0.0126232 0.0252161 0.0121525 0 
trait 2 0.188129 0 0.563093 0.00128675 0.000918976 0.112985 0.336234 0.367561 
trait 3 0.3 0.000483758 0.00156878 0 0 0.00103311 0.00123665 0 
node 1 1 1 3
node 2 1 1 1
node 3 3 1 1
node 4 1 0 2
node 14 1 0 0
gene 1 1 4 -8.39783 0 1 -8.39783 1
gene 2 2 4 10.1896 0 2 10.1896 1
gene 3 3 4 7.81292 0 3 7.81292 1
gene 3 3 14 2.69927 0 22 2.69927 1
gene 3 14 4 5.95668 0 23 5.95668 1
genomeend 32

/* Organism #33 Fitness: 9 Error: 1 */
genomestart 33
trait 1 0.1 0.0277564 0.0189715 0 0.0138653 0.040687 0.00961632 0 
trait 2 0.212044 0 0.277906 0.0110178 0.00786873 0.049431 0.148304 0.160808 
trait 3 0.3 0.00414218 0.0134327 0 0 0.00884599 0.0105888 0 
node 1 1 1 3
node 2 1 1 1
node 3 3 1 1
node 4 1 0 2
node 14 1 0 0
gene 1 1 4 -6.81594 0 1 -6.81594 1
gene 2 2 4 12.6324 0 2 12.6324 1
gene 3 3 4 6.03417 0 3 6.03417 1
gene 3 3 14 3.04214 0 22 3.04214 1
gene 3 14 4 5.14809 0 23 5.14809 1
genomeend 33

/* Organism #34 Fitness: 9 Error: 1 */
genomestart 34
trait 1 0.1 0.00344423 0.0172859 0 0.0126334 0.025344 0.0121316 0 
trait 2 0.199561 0 0.559453 0.00136717 0.000976412 0.105923 0.315238 0.344588 
trait 3 0.3 0.000513993 0.00166683 0 0 0.00109768 0.00131394 0 
node 1 1 1 3
node 2 1 1 1
node 3 3 1 1
node 4 1 0 2
node 14 1 0 0
gene 1 1 4 -8.39783 0 1 -8.39783 1
gene 2 2 4 10.1896 0 2 10.1896 1
gene 3 3 4 7.00733 0 3 7.00733 1
gene 3 3 14 2.90176 0 22 2.90176 1
gene 3 14 4 6.13475 0 23 6.13475 1
genomeend 34

/* Organism #35 Fitness: 4.00397 Error: 1.99901 */
genomestart 35
trait 1 0.1 0.0275538 0.0189575 0 0.0138551 0.0405591 0.00963728 0 
trait 2 0.200612 0 0.281547 0.0109373 0.0078113 0.0564925 0.1693 0.18378 
trait 3 0.3 0.00411195 0.0133346 0 0 0.00878142 0.0105115 0 
node 1 2 1 3
node 2 1 1 1
node 3 3 1 1
node 4 1 0 2
node 14 1 0 0
gene 1 1 4 -1.03578 0 1 -1.03578 1
gene 2 2 4 11.2073 0 2 11.2073 1
gene 3 3 4 12.1007 0 3 12.1007 1
gene 3 3 14 4.11363 0 22 4.11363 1
gene 3 14 4 4.87946 0 23 4.87946 1
genomeend 35

/* Organism #36 Fitness: 8.99962 Error: 1.00006 */
genomestart 36
trait 1 0.1 0.00364683 0.0173 0 0.0126437 0.0254718 0.0121106 0 
trait 2 0.210994 0 0.555812 0.00144759 0.00103385 0.0988619 0.294242 0.321616 
trait 3 0.3 0.000544228 0.00176488 0 0 0.00116225 0.00139123 0 
node 1 1 1 3
node 2 1 1 1
node 3 3 1 1
node 4 1 0 2
node 14 1 0 0
gene 1 1 4 -10.7595 0 1 -10.7595 1
gene 2 2 4 11.8969 0 2 11.8969 1
gene 3 3 4 4.23938 0 3 4.23938 1
gene 3 3 14 3.98229 0 22 3.98229 1
gene 3 14 4 8.4843 0 23 8.4843 1
genomeend 36

/* Organism #37 Fitness: 4.05668 Error: 1.98588 */
genomestart 37
trait 1 0.1 0.00344423 0.0172859 0 0.0126334 0.025344 0.0121316 0 
trait 2 0.199561 0 0.559453 0.00136717 0.000976412 0.105923 0.315238 0.344588 
trait 3 0.3 0.000513993 0.00166683 0 0 0.00109768 0.00131394 0 
node 1 1 1 3
node 2 1 1 1
node 3 3 1 1
node 4 1 0 2
node 14 1 0 0
gene 1 1 4 -1.48982 0 1 -1.48982 1
gene 2 2 4 1.30211 0 2 1.30211 1
gene 3 3 4 7.17232 0 3 7.17232 1
gene 3 3 14 1.17291 0 22 1.17291 1
gene 3 14 4 -1.34841 0 23 -1.34841 1
genomeend 37

/* Organism #38 Fitness: 4 Error: 2 */
genomestart 38
trait 1 0.1 0.00324163 0.0172719 0 0.0126232 0.0252161 0.0121525 0 
trait 2 0.188129 0 0.563093 0.00128675 0.000918976 0.112985 0.336234 0.367561 
trait 3 0.3 0.000483758 0.00156878 0 0 0.00103311 0.00123665 0 
node 1 1 1 3
node 2 1 1 1
node 3 3 1 1
node 4 1 0 2
node 14 1 0 0
gene 1 1 4 -8.39783 0 1 -8.39783 1
gene 2 2 4 -1.06889 0 2 -1.06889 1
gene 3 3 4 1.96469 0 3 1.96469 1
gene 3 3 14 0.254047 0 22 0.254047 1
gene 3 14 4 4.21196 0 23 4.21196 1
genomeend 38

/* Organism #39 Fitness: 9 Error: 1 */
genomestart 39
trait 1 0.1 0.00364683 0.0173 0 0.0126437 0.0254718 0.0121106 0 
trait 2 0.210994 0 0.555812 0.00144759 0.00103385 0.0988619 0.294242 0.321616 
trait 3 0.405067 0.000544228 0 0 0 0.00116225 0.00139123 0 
node 1 1 1 3
node 2 1 1 1
node 3 3 1 1
node 4 1 0 2
node 14 1 0 0
gene 1 1 4 -7.88397 0 1 -7.88397 1
gene 2 2 4 10.9528 0 2 10.9528 1
gene 3 3 4 4.31849 0 3 4.31849 1
gene 3 3 14 0.939933 0 22 0.939933 1
gene 3 14 4 8.78075 0 23 8.78075 1
genomeend 39

/* Organism #40 Fitness: 9 Error: 1 */
genomestart 40
trait 1 0.1 0.00324163 0.0172719 0 0.0126232 0.0252161 0.0121525 0 
trait 2 0.188129 0 0.563093 0.00128675 0.000918976 0.112985 0.336234 0.367561 
trait 3 0.3 0.000483758 0.00156878 0 0 0.00103311 0.00123665 0 
node 1 1 1 3
node 2 1 1 1
node 3 3 1 1
node 4 1 0 2
node 14 1 0 0
gene 1 1 4 -8.44689 0 1 -8.44689 1
gene 2 2 4 12.4458 0 2 12.4458 1
gene 3 3 4 7.85335 0 3 7.85335 1
gene 3 3 14 5.16237 0 22 5.16237 1
gene 3 14 4 3.67611 0 23 3.67611 1
genomeend 40

/* Organism #41 Fitness: 9 Error: 1 */
genomestart 41
trait 1 0.1 0.00324163 0.0172719 0 0.0126232 0.0252161 0.0121525 0 
trait 2 0.188129 0 0.563093 0.00128675 0.000918976 0.112985 0.336234 0.367561 
trait 3 0.3 0.000483758 0.00156878 0 0 0.00103311 0.00123665 0 
node 1 1 1 3
node 2 1 1 1
node 3 3 1 1
node 4 1 0 2
node 14 1 0 0
gene 1 1 4 -7.40218 0 1 -7.40218 1
gene 2 2 4 9.5758 0 2 9.5758 1
gene 3 3 4 7.72068 0 3 7.72068 1
gene 3 3 14 3.28512 0 22 3.28512 1
gene 3 14 4 7.85926 0 23 7.85926 1
genomeend 41

/* Organism #42 Fitness: 8.99917 Error: 1.00014 */
genomestart 42
trait 1 0.1 0.00324163 0.0172719 0 0.0126232 0.0252161 0.0121525 0 
trait 2 0.188129 0 0.563093 0.00128675 0.000918976 0.112985 0.336234 0.367561 
trait 3 0.3 0.000483758 0.00156878 0 0 0.00103311 0.00123665 0 
node 1 1 1 3
node 2 1 1 1
node 3 3 1 1
node 4 1 0 2
node 14 1 0 0
gene 1 1 4 -10.3596 0 1 -10.3596 1
gene 2 2 4 10.1896 0 2 10.1896 1
gene 3 3 4 8.63639 0 3 8.63639 1
gene 3 3 14 -0.0589165 0 22 -0.0589165 1
gene 3 14 4 8.24295 0 23 8.24295 1
genomeend 42

/* Species #7 : (Size 11) (AF 9.4584) (Age 17)  */


/* Organism #43 Fitness: 9.99308 Error: 0.838817 */
genomestart 43
trait 1 0.075 0 0.130428 0 0.0124589 0.0231704 0.0124879 0.162106 
trait 2 0.174443 0 0 0 0 0 0.471517 0 
trait 3 0.3 0 0 0 0 0 0 0 
node 1 1 1 3
node 2 1 1 1
node 3 1 1 1
node 4 1 0 2
node 15 1 0 0
node 22 1 0 0
node 55 1 0 0
gene 1 1 4 -6.7839 0 1 -6.7839 1
gene 2 2 4 0.23171 0 2 0.23171 0
gene 3 3 4 -0.303818 0 3 -0.303818 0
gene 2 2 15 0.716548 0 24 0.716548 1
gene 2 15 4 -5.35007 0 25 -5.35007 1
gene 3 3 22 4.63189 0 46 4.63189 1
gene 3 22 4 12.3543 0 47 12.3543 1
gene 1 2 22 7.72631 0 62 7.72631 1
gene 3 3 55 1 0 160 0 1
gene 3 55 4 -0.303818 0 161 0 1
genomeend 43

/* Organism #44 Fitness: 8.99595 Error: 1.00068 */
genomestart 44
trait 1 0.075 0 0.130428 0 0.0124589 0.0231704 0.0124879 0.162106 
trait 2 0.174443 0 0 0 0 0 0.471517 0 
trait 3 0.3 0 0 0 0 0 0 0 
node 1 1 1 3
node 2 1 1 1
node 3 1 1 1
node 4 1 0 2
node 15 1 0 0
node 22 1 0 0
gene 1 1 4 -7.08047 0 1 -7.08047 1
gene 2 2 4 -1.10748 0 2 -1.10748 0
gene 3 3 4 2.47436 0 3 2.47436 0
gene 2 2 15 1.57593 0 24 1.57593 1
gene 2 15 4 -5.43991 0 25 -5.43991 1
gene 3 3 22 6.44027 0 46 6.44027 1
gene 3 22 4 16.6362 0 47 16.6362 1
gene 1 2 22 10.1176 0 62 10.1176 1
genomeend 44

/* Organism #45 Fitness: 8.99994 Error: 1.00001 */
genomestart 45
trait 1 0.075 0 0.130428 0 0.0124589 0.0231704 0.0124879 0.162106 
trait 2 0.174443 0 0 0 0 0 0.471517 0 
trait 3 0.3 0 0 0 0 0 0 0 
node 1 1 1 3
node 2 1 1 1
node 3 1 1 1
node 4 1 0 2
node 15 1 0 0
node 22 1 0 0
gene 1 1 4 -6.56014 0 1 -6.56014 1
gene 2 2 4 1.3638 0 2 1.3638 0
gene 3 3 4 0.374192 0 3 0.374192 0
gene 2 2 15 0.671574 0 24 0.671574 1
gene 2 15 4 -5.09137 0 25 -5.09137 1
gene 3 3 22 3.56232 0 46 3.56232 1
gene 3 22 4 13.554 0 47 13.554 1
gene 1 2 22 6.51863 0 62 6.51863 1
genomeend 45

/* Organism #46 Fitness: 9 Error: 1 */
genomestart 46
trait 1 0.075 0 0.130428 0 0.0124589 0.0231704 0.0124879 0.162106 
trait 2 0.174443 0 0 0 0 0 0.471517 0 
trait 3 0.3 0 0 0 0 0 0 0 
node 1 1 1 3
node 2 1 1 1
node 3 1 1 1
node 4 1 0 2
node 15 1 0 0
node 22 1 0 0
node 55 1 0 0
gene 1 1 4 -8.24086 0 1 -8.24086 1
gene 3 2 4 -0.140435 0 2 -0.140435 0
gene 3 3 4 2.0675 0 3 2.0675 0
gene 2 2 15 -1.41263 0 24 -1.41263 1
gene 2 15 4 -6.9309 0 25 -6.9309 1
gene 3 3 22 4.39921 0 46 4.39921 1
gene 3 22 4 16.7459 0 47 16.7459 1
gene 1 2 22 6.57 0 62 6.57 1
gene 3 3 55 2.24705 0 160 2.24705 1
gene 3 55 4 0.13705 0 161 0.13705 1
genomeend 46

/* Organism #47 Fitness: 8.91128 Error: 1.01482 */
genomestart 47
trait 1 0.075 0 0.130428 0 0.0124589 0.0231704 0.0124879 0.162106 
trait 2 0.174443 0 0 0 0 0 0.471517 0 
trait 3 0.3 0 0 0 0 0 0 0 
node 1 1 1 3
node 2 1 1 1
node 3 1 1 1
node 4 1 0 2
node 15 1 0 0
node 22 1 0 0
node 55 1 0 0
gene 1 1 4 -6.25561 0 1 -6.25561 1
gene 2 2 4 1.44011 0 2 1.44011 0
gene 3 3 4 -2.33372 0 3 -2.33372 0
gene 2 2 15 -0.261296 0 24 -0.261296 1
gene 2 15 4 -3.48471 0 25 -3.48471 1
gene 3 3 22 2.97886 0 46 2.97886 1
gene 3 22 4 14.2337 0 47 14.2337 1
gene 1 2 22 5.42347 0 62 5.42347 1
gene 3 3 55 0.33879 0 160 0.33879 1
gene 3 55 4 0.0577316 0 161 0.0577316 1
genomeend 47

/* Organism #48 Fitness: 9.70757 Error: 0.884303 */
genomestart 48
trait 1 0.075 0 0.130428 0 0.0124589 0.0231704 0.0124879 0.162106 
trait 2 0.174443 0 0 0 0 0 0.471517 0 
trait 3 0.3 0 0 0 0 0 0 0 
node 1 1 1 3
node 2 1 1 1
node 3 1 1 1
node 4 1 0 2
node 15 1 0 0
node 22 1 0 0
node 55 1 0 0
gene 1 1 4 -7.51238 0 1 -7.51238 1
gene 2 2 4 0.23171 0 2 0.23171 0
gene 3 3 4 0.00838835 0 3 0.00838835 0
gene 2 2 15 0.999462 0 24 0.999462 1
gene 2 15 4 -5.35007 0 25 -5.35007 1
gene 3 3 22 4.63189 0 46 4.63189 1
gene 3 22 4 13.3389 0 47 13.3389 1
gene 1 2 22 7.72631 0 62 7.72631 1
gene 3 3 55 1 0 160 0 1
gene 3 55 4 -0.303818 0 161 0 1
genomeend 48

/* Organism #49 Fitness: 13.9551 Error: 0.264349 */
/* ##------$ WINNER 49 SPECIES #7 $------## */
genomestart 49
trait 1 0.075 0 0.130428 0 0.0124589 0.0231704 0.0124879 0.162106 
trait 2 0.174443 0 0 0 0 0 0.471517 0 
trait 3 0.3 0 0 0 0 0 0 0 
node 1 1 1 3
node 2 1 1 1
node 3 1 1 1
node 4 1 0 2
node 15 1 0 0
node 22 1 0 0
node 55 1 0 0
gene 1 1 4 -7.51238 0 1 -7.51238 1
gene 2 2 4 0.23171 0 2 0.23171 0
gene 3 3 4 -0.616024 0 3 -0.616024 1
gene 2 2 15 0.999462 0 24 0.999462 1
gene 2 15 4 -5.35007 0 25 -5.35007 1
gene 3 3 22 4.63189 0 46 4.63189 1
gene 3 22 4 13.3389 0 47 13.3389 1
gene 1 2 22 7.72631 0 62 7.72631 1
gene 3 3 55 1 0 160 0 1
gene 3 55 4 -0.303818 0 161 0 1
genomeend 49

/* Organism #50 Fitness: 5.77889 Error: 1.59607 */
genomestart 50
trait 1 0.075 0 0.130428 0 0.0124589 0.0231704 0.0124879 0.162106 
trait 2 0.174443 0 0 0 0 0 0.471517 0 
trait 3 0.3 0 0 0 0 0 0 0 
node 1 1 1 3
node 2 1 1 1
node 3 1 1 1
node 4 1 0 2
node 15 1 0 0
node 22 1 0 0
node 55 1 0 0
gene 1 1 4 -7.55425 0 1 -7.55425 1
gene 2 2 4 -1.62446 0 2 -1.62446 0
gene 3 3 4 0.925796 0 3 0.925796 1
gene 2 2 15 1.73053 0 24 1.73053 1
gene 2 15 4 -5.98077 0 25 -5.98077 1
gene 3 3 22 6.25488 0 46 6.25488 1
gene 3 22 4 12.2968 0 47 12.2968 1
gene 1 2 22 8.94445 0 62 8.94445 1
gene 3 3 55 -0.172948 0 160 -0.172948 1
gene 3 55 4 1.7216 0 161 1.7216 1
genomeend 50

/* Organism #51 Fitness: 9 Error: 1 */
genomestart 51
trait 1 0.075 0 0.130428 0 0.0124589 0.0231704 0.0124879 0.162106 
trait 2 0.174443 0 0 0 0 0 0.471517 0 
trait 3 0.3 0 0 0 0 0 0 0 
node 1 1 1 3
node 2 1 1 1
node 3 1 1 1
node 4 1 0 2
node 15 1 0 0
node 22 1 0 0
node 55 1 0 0
gene 1 1 4 -9.11217 0 1 -9.11217 1
gene 2 2 4 2.08541 0 2 2.08541 0
gene 3 3 4 0.975846 0 3 0.975846 0
gene 2 2 15 -0.0321555 0 24 -0.0321555 1
gene 2 15 4 -3.1303 0 25 -3.1303 1
gene 3 3 22 4.63189 0 46 4.63189 1
gene 3 22 4 15.3474 0 47 15.3474 1
gene 1 2 22 7.86571 0 62 7.86571 1
gene 3 3 55 1.30096 0 160 1.30096 1
gene 3 55 4 -1.59614 0 161 -1.59614 1
genomeend 51

/* Organism #52 Fitness: 9.99308 Error: 0.838817 */
genomestart 52
trait 1 0.075 0 0.130428 0 0.0124589 0.0231704 0.0124879 0.162106 
trait 2 0.174443 0 0 0 0 0 0.471517 0 
trait 3 0.3 0 0 0 0 0 0 0 
node 1 1 1 3
node 2 1 1 1
node 3 1 1 1
node 4 1 0 2
node 15 1 0 0
node 22 1 0 0
node 55 1 0 0
gene 1 1 4 -6.7839 0 1 -6.7839 1
gene 2 2 4 0.23171 0 2 0.23171 0
gene 3 3 4 -0.303818 0 3 -0.303818 0
gene 2 2 15 0.716548 0 24 0.716548 1
gene 2 15 4 -5.35007 0 25 -5.35007 1
gene 3 3 22 4.63189 0 46 4.63189 1
gene 3 22 4 12.3543 0 47 12.3543 1
gene 1 2 22 7.72631 0 62 7.72631 1
gene 3 3 55 1 0 160 0 1
gene 3 55 4 -0.303818 0 161 0 1
genomeend 52

/* Organism #53 Fitness: 9.70757 Error: 0.884303 */
genomestart 53
trait 1 0.075 0 0.130428 0 0.0124589 0.0231704 0.0124879 0.162106 
trait 2 0.174443 0 0 0 0 0 0.471517 0 
trait 3 0.3 0 0 0 0 0 0 0 
node 1 1 1 3
node 2 1 1 1
node 3 1 1 1
node 4 1 0 2
node 15 1 0 0
node 22 1 0 0
node 55 1 0 0
gene 1 1 4 -7.51238 0 1 -7.51238 1
gene 2 2 4 0.23171 0 2 0.23171 0
gene 3 3 4 0.00838835 0 3 0.00838835 0
gene 2 2 15 0.999462 0 24 0.999462 1
gene 2 15 4 -5.35007 0 25 -5.35007 1
gene 3 3 22 4.63189 0 46 4.63189 1
gene 3 22 4 13.3389 0 47 13.3389 1
gene 1 2 22 7.72631 0 62 7.72631 1
gene 3 3 55 1 0 160 0 1
gene 3 55 4 -0.303818 0 161 0 1
genomeend 53

/* Species #8 : (Size 9) (AF 8.1134) (Age 17)  */


/* Organism #54 Fitness: 8.9982 Error: 1.0003 */
genomestart 54
trait 1 0.1 0 0.322101 0 0.307666 0.0231704 0.0124879 0 
trait 2 0.2 0 0 0 0 0 0 0 
trait 3 0.3 0 0 0 0 0 0 0 
node 1 1 1 3
node 2 3 1 1
node 3 1 1 1
node 4 1 0 2
node 15 2 0 0
node 23 1 0 0
gene 1 1 4 -1.85577 0 1 -1.85577 1
gene 2 2 4 3.77392 0 2 3.77392 1
gene 3 3 4 4.31327 0 3 4.31327 1
gene 2 2 15 2.3722 0 24 2.3722 1
gene 2 15 4 -1.8183 0 25 -1.8183 0
gene 2 15 23 -0.803703 0 49 -0.803703 1
gene 2 23 4 1.24629 0 50 1.24629 1
genomeend 54

/* Organism #55 Fitness: 8.99881 Error: 1.0002 */
genomestart 55
trait 1 0.1 0 0.322101 0 0.307666 0.0231704 0.0124879 0 
trait 2 0.2 0 0 0 0 0 0 0 
trait 3 0.3 0 0 0 0 0 0 0 
node 1 1 1 3
node 2 3 1 1
node 3 1 1 1
node 4 1 0 2
node 15 2 0 0
node 23 1 0 0
gene 1 1 4 -1.85577 0 1 -1.85577 1
gene 2 2 4 3.77392 0 2 3.77392 1
gene 3 3 4 4.31327 0 3 4.31327 1
gene 2 2 15 2.3722 0 24 2.3722 1
gene 2 15 4 -1.8183 0 25 -1.8183 0
gene 2 15 23 -1.88554 0 49 -1.88554 1
gene 2 23 4 1.24629 0 50 1.24629 1
genomeend 55

/* Organism #56 Fitness: 7.16084 Error: 1.32403 */
genomestart 56
trait 1 0.1 0 0.322101 0 0.307666 0.0231704 0.0124879 0 
trait 2 0.2 0 0 0 0 0 0 0 
trait 3 0.3 0 0 0 0 0 0 0 
node 1 1 1 3
node 2 3 1 1
node 3 1 1 1
node 4 1 0 2
node 15 2 0 0
node 23 1 0 0
gene 1 1 4 -0.155066 0 1 -0.155066 1
gene 2 2 4 5.39721 0 2 5.39721 1
gene 3 3 4 4.31327 0 3 4.31327 1
gene 2 2 15 2.3722 0 24 2.3722 1
gene 2 15 4 1.18129 0 25 1.18129 0
gene 2 15 23 -2.4996 0 49 -2.4996 1
gene 2 23 4 2.70699 0 50 2.70699 1
genomeend 56

/* Organism #57 Fitness: 8.00635 Error: 1.17045 */
genomestart 57
trait 1 0.1 0 0.322101 0 0.307666 0.0231704 0.0124879 0 
trait 2 0.2 0 0 0 0 0 0 0 
trait 3 0.3 0 0 0 0 0 0 0 
node 1 1 1 3
node 2 3 1 1
node 3 1 1 1
node 4 1 0 2
node 15 2 0 0
node 23 1 0 0
gene 1 1 4 -3.21442 0 1 -3.21442 1
gene 2 2 4 3.53578 0 2 3.53578 1
gene 3 3 4 6.6156 0 3 6.6156 1
gene 2 2 15 1.61421 0 24 1.61421 1
gene 2 15 4 -0.28015 0 25 -0.28015 0
gene 2 15 23 -2.99764 0 49 -2.99764 1
gene 2 23 4 1.86577 0 50 1.86577 1
genomeend 57

/* Organism #58 Fitness: 8.97647 Error: 1.00392 */
genomestart 58
trait 1 0.1 0 0.322101 0 0.307666 0.0231704 0.0124879 0 
trait 2 0.2 0 0 0 0 0 0 0 
trait 3 0.3 0 0 0 0 0 0 0 
node 1 1 1 3
node 2 3 1 1
node 3 1 1 1
node 4 1 0 2
node 15 2 0 0
node 23 1 0 0
gene 1 1 4 -1.19688 0 1 -1.19688 1
gene 2 2 4 5.83362 0 2 5.83362 1
gene 3 3 4 2.57425 0 3 2.57425 1
gene 2 2 15 0.445668 0 24 0.445668 1
gene 2 15 4 0.344212 0 25 0.344212 0
gene 2 15 23 -1.49336 0 49 -1.49336 1
gene 2 23 4 0.213915 0 50 0.213915 1
genomeend 58

/* Organism #59 Fitness: 8.85512 Error: 1.02425 */
genomestart 59
trait 1 0.1 0 0.322101 0 0.307666 0.0231704 0.0124879 0 
trait 2 0.2 0 0 0 0 0 0 0 
trait 3 0.3 0 0 0 0 0 0 0 
node 1 1 1 3
node 2 3 1 1
node 3 1 1 1
node 4 1 0 2
node 15 2 0 0
node 23 1 0 0
gene 1 1 4 -1.41228 0 1 -1.41228 1
gene 2 2 4 5.01185 0 2 5.01185 1
gene 3 3 4 6.57671 0 3 6.57671 1
gene 2 2 15 -0.716007 0 24 -0.716007 1
gene 2 15 4 -2.39107 0 25 -2.39107 0
gene 2 15 23 -0.239277 0 49 -0.239277 1
gene 2 23 4 1.85498 0 50 1.85498 1
genomeend 59

/* Organism #60 Fitness: 8.98637 Error: 1.00227 */
genomestart 60
trait 1 0.1 0 0.322101 0 0.307666 0.0231704 0.0124879 0 
trait 2 0.2 0 0 0 0 0 0 0 
trait 3 0.3 0 0 0 0 0 0 0 
node 1 1 1 3
node 2 3 1 1
node 3 1 1 1
node 4 1 0 2
node 15 2 0 0
node 23 1 0 0
gene 1 1 4 -1.85577 0 1 -1.85577 1
gene 2 2 4 3.77392 0 2 3.77392 1
gene 3 3 4 4.31327 0 3 4.31327 1
gene 2 2 15 0.594394 0 24 0.594394 1
gene 2 15 4 -1.8183 0 25 -1.8183 0
gene 2 15 23 -0.803703 0 49 -0.803703 1
gene 2 23 4 1.24629 0 50 1.24629 1
gene 1 1 15 -1.19648 0 172 -1.19648 1
genomeend 60

/* Organism #61 Fitness: 4.05414 Error: 1.98651 */
genomestart 61
trait 1 0.1 0 0.322101 0 0.307666 0.0231704 0.0124879 0 
trait 2 0.2 0 0 0 0 0 0 0 
trait 3 0.3 0 0 0 0 0 0 0 
node 1 1 1 3
node 2 3 1 1
node 3 1 1 1
node 4 1 0 2
node 15 2 0 0
node 23 1 0 0
gene 1 1 4 -1.15954 0 1 -1.15954 1
gene 2 2 4 5.22909 0 2 5.22909 1
gene 3 3 4 0.332519 0 3 0.332519 1
gene 2 2 15 2.79021 0 24 2.79021 1
gene 2 15 4 -0.0033433 0 25 -0.0033433 0
gene 2 15 23 -3.36381 0 49 -3.36381 1
gene 2 23 4 2.61251 0 50 2.61251 1
genomeend 61

/* Organism #62 Fitness: 8.98432 Error: 1.00261 */
genomestart 62
trait 1 0.1 0 0.322101 0 0.307666 0.0231704 0.0124879 0 
trait 2 0.2 0 0 0 0 0 0 0 
trait 3 0.3 0 0 0 0 0 0 0 
node 1 1 1 3
node 2 3 1 1
node 3 1 1 1
node 4 1 0 2
node 15 2 0 0
node 23 1 0 0
gene 1 1 4 -1.72016 0 1 -1.72016 1
gene 2 2 4 2.95265 0 2 2.95265 1
gene 3 3 4 4.55821 0 3 4.55821 1
gene 2 2 15 2.36522 0 24 2.36522 1
gene 2 15 4 -1.99484 0 25 -1.99484 0
gene 2 15 23 -1.4597 0 49 -1.4597 1
gene 2 23 4 3.59543 0 50 3.59543 1
genomeend 62

/* Species #11 : (Size 9) (AF 7.30832) (Age 14)  */


/* Organism #63 Fitness: 8.99998 Error: 1 */
genomestart 63
trait 1 0.1 0 0.0170471 0 0.0124589 0.0231704 0.0124879 0 
trait 2 0.2 0 0 0 0 0 0 0 
trait 3 0.3 0 0 0 0 0 0 0 
node 1 1 1 3
node 2 1 1 1
node 3 1 1 1
node 4 1 0 2
node 15 1 0 0
node 27 1 0 0
gene 1 1 4 -5.7161 0 1 -5.7161 1
gene 2 2 4 3.85476 0 2 3.85476 1
gene 3 3 4 5.49379 0 3 5.49379 1
gene 2 2 15 7.84448 0 24 7.84448 1
gene 2 15 4 -0.341262 0 25 -0.341262 1
gene 1 3 15 0.61257 0 30 0.61257 1
gene 1 1 15 -9.64778 0 48 -9.64778 1
gene 2 2 27 1.49735 0 66 1.49735 1
gene 2 27 4 6.06199 0 67 6.06199 1
genomeend 63

/* Organism #64 Fitness: 8.86013 Error: 1.0234 */
genomestart 64
trait 1 0.1 0 0.0170471 0 0.0124589 0.0231704 0.0124879 0 
trait 2 0.2 0 0 0 0 0 0 0 
trait 3 0.3 0 0 0 0 0 0 0 
node 1 1 1 3
node 2 1 1 1
node 3 1 1 1
node 4 1 0 2
node 15 1 0 0
node 27 1 0 0
node 57 1 0 0
gene 1 1 4 -5.7161 0 1 -5.7161 1
gene 2 2 4 3.85476 0 2 3.85476 0
gene 3 3 4 5.49379 0 3 5.49379 1
gene 2 2 15 7.84448 0 24 7.84448 1
gene 2 15 4 -1.82705 0 25 -1.82705 1
gene 1 3 15 4.24608 0 30 4.24608 1
gene 1 1 15 -9.64778 0 48 -9.64778 1
gene 2 2 27 0.402726 0 66 0.402726 1
gene 2 27 4 6.06199 0 67 6.06199 1
gene 2 2 57 1 0 173 0 1
gene 2 57 4 3.85476 0 174 0 1
genomeend 64

/* Organism #65 Fitness: 8.93804 Error: 1.01034 */
genomestart 65
trait 1 0.1 0 0.0170471 0 0.0124589 0.0231704 0.0124879 0 
trait 2 0.2 0 0 0 0 0 0 0 
trait 3 0.3 0 0 0 0 0 0 0 
node 1 1 1 3
node 2 1 1 1
node 3 1 1 1
node 4 1 0 2
node 15 1 0 0
node 27 1 0 0
gene 1 1 4 -3.83795 0 1 -3.83795 1
gene 2 2 4 4.68528 0 2 4.68528 1
gene 3 3 4 3.69865 0 3 3.69865 1
gene 2 2 15 7.6781 0 24 7.6781 1
gene 2 15 4 0.913753 0 25 0.913753 1
gene 1 3 15 2.22024 0 30 2.22024 1
gene 1 1 15 -11.177 0 48 -11.177 1
gene 2 2 27 3.30665 0 66 3.30665 1
gene 2 27 4 5.82344 0 67 5.82344 1
genomeend 65

/* Organism #66 Fitness: 4.00127 Error: 1.99968 */
genomestart 66
trait 1 0.1 0 0.0170471 0 0.0124589 0.0231704 0.0124879 0 
trait 2 0.2 0 0 0 0 0 0 0 
trait 3 0.3 0.214279 0.887676 0 0.512648 0.92529 0 0.198186 
node 1 1 1 3
node 2 1 1 1
node 3 1 1 1
node 4 1 0 2
node 15 1 0 0
node 27 1 0 0
gene 1 1 4 -7.69797 0 1 -7.69797 1
gene 2 2 4 5.0145 0 2 5.0145 1
gene 3 3 4 3.78501 0 3 3.78501 1
gene 2 2 15 9.24836 0 24 9.24836 1
gene 2 15 4 0.868028 0 25 0.868028 1
gene 1 3 15 0.275975 0 30 0.275975 1
gene 1 1 15 -9.1106 0 48 -9.1106 1
gene 2 2 27 1.91852 0 66 1.91852 1
gene 2 27 4 4.56129 0 67 4.56129 1
genomeend 66

/* Organism #67 Fitness: 3.99996 Error: 2.00001 */
genomestart 67
trait 1 0.1 0 0.0170471 0 0.0124589 0.0231704 0.0124879 0 
trait 2 0.2 0 0 0 0 0 0 0 
trait 3 0.3 0 0 0 0 0 0 0 
node 1 1 1 3
node 2 1 1 1
node 3 1 1 1
node 4 1 0 2
node 15 1 0 0
node 27 1 0 0
gene 1 1 4 0.406939 0 1 0.406939 1
gene 2 2 4 1.55671 0 2 1.55671 1
gene 3 3 4 -1.59218 0 3 -1.59218 1
gene 2 2 15 9.26397 0 24 9.26397 1
gene 2 15 4 -0.853079 0 25 -0.853079 1
gene 1 3 15 -1.0673 0 30 -1.0673 1
gene 1 1 15 -10.9753 0 48 -10.9753 1
gene 2 2 27 1.49735 0 66 1.49735 1
gene 2 27 4 7.01725 0 67 7.01725 1
genomeend 67

/* Organism #68 Fitness: 8.97539 Error: 1.00411 */
genomestart 68
trait 1 0.1 0 0.0170471 0 0.0124589 0.0231704 0.0124879 0 
trait 2 0.2 0 0 0 0 0 0 0 
trait 3 0.3 0 0 0 0 0 0 0 
node 1 1 1 3
node 2 1 1 1
node 3 1 1 1
node 4 1 0 2
node 15 1 0 0
node 27 1 0 0
gene 1 1 4 -9.21416 0 1 -9.21416 1
gene 2 2 4 5.22436 0 2 5.22436 1
gene 3 3 4 7.0112 0 3 7.0112 1
gene 2 2 15 6.37664 0 24 6.37664 1
gene 2 15 4 -1.20446 0 25 -1.20446 1
gene 1 3 15 4.63254 0 30 4.63254 1
gene 1 1 15 -10.5572 0 48 -10.5572 1
gene 2 2 27 1.16075 0 66 1.16075 1
gene 2 27 4 6.6365 0 67 6.6365 1
genomeend 68

/* Organism #69 Fitness: 4.00029 Error: 1.99993 */
genomestart 69
trait 1 0.1 0 0.0170471 0 0.0124589 0.0231704 0.0124879 0 
trait 2 0.2 0 0 0 0 0 0 0 
trait 3 0.3 0 0 0 0 0 0 0 
node 1 1 1 3
node 2 1 1 1
node 3 1 1 1
node 4 1 0 2
node 15 1 0 0
node 27 1 0 0
gene 1 1 4 -4.78797 0 1 -4.78797 1
gene 2 2 4 2.89844 0 2 2.89844 1
gene 3 3 4 7.04766 0 3 7.04766 1
gene 2 2 15 5.88525 0 24 5.88525 1
gene 2 15 4 -2.8206 0 25 -2.8206 1
gene 1 3 15 4.09921 0 30 4.09921 1
gene 1 1 15 -12.2211 0 48 -12.2211 1
gene 2 2 27 -1.84036 0 66 -1.84036 1
gene 2 27 4 5.14246 0 67 5.14246 1
gene 1 15 27 9.38243 0 167 9.38243 1
genomeend 69

/* Organism #70 Fitness: 8.99986 Error: 1.00002 */
genomestart 70
trait 1 0.1 0 0.0170471 0 0.0124589 0.0231704 0.0124879 0 
trait 2 0.2 0 0 0 0 0 0 0 
trait 3 0.3 0 0 0 0 0 0 0 
node 1 1 1 3
node 2 1 1 1
node 3 1 1 1
node 4 1 0 2
node 15 1 0 0
node 27 1 0 0
gene 1 1 4 -7.06631 0 1 -7.06631 1
gene 2 2 4 5.13549 0 2 5.13549 1
gene 3 3 4 6.26526 0 3 6.26526 1
gene 2 2 15 6.81136 0 24 6.81136 1
gene 2 15 4 -1.82705 0 25 -1.82705 1
gene 1 3 15 4.24608 0 30 4.24608 1
gene 1 1 15 -11.1255 0 48 -11.1255 1
gene 2 2 27 0.402726 0 66 0.402726 1
gene 2 27 4 5.94111 0 67 5.94111 1
gene 1 15 27 9.38243 0 167 9.38243 1
genomeend 70

/* Organism #71 Fitness: 8.99999 Error: 1 */
genomestart 71
trait 1 0.1 0 0.0170471 0 0.0124589 0.0231704 0.0124879 0 
trait 2 0.2 0 0 0 0 0 0 0 
trait 3 0.3 0 0 0 0 0 0 0 
node 1 1 1 3
node 2 1 1 1
node 3 1 1 1
node 4 1 0 2
node 15 1 0 0
node 27 1 0 0
gene 1 1 4 -5.7161 0 1 -5.7161 1
gene 2 2 4 3.85476 0 2 3.85476 1
gene 3 3 4 6.26526 0 3 6.26526 1
gene 2 2 15 7.84448 0 24 7.84448 1
gene 2 15 4 -1.82705 0 25 -1.82705 1
gene 1 3 15 4.24608 0 30 4.24608 1
gene 1 1 15 -11.1255 0 48 -11.1255 1
gene 2 2 27 0.402726 0 66 0.402726 1
gene 2 27 4 6.06199 0 67 6.06199 1
genomeend 71

/* Species #12 : (Size 9) (AF 7.0214) (Age 14)  */


/* Organism #72 Fitness: 8.98621 Error: 1.0023 */
genomestart 72
trait 1 0.1 0 0.0170471 0 0.0124589 0.0231704 0.0124879 0 
trait 2 0.180981 0 0 0 0 0 0.350896 0 
trait 3 0.3 0 0 0 0 0 0 0 
node 1 1 1 3
node 2 1 1 1
node 3 1 1 1
node 4 1 0 2
node 15 1 0 0
node 22 1 0 0
node 26 1 0 0
gene 1 1 4 -2.63769 0 1 -2.63769 1
gene 2 2 4 4.75608 0 2 4.75608 1
gene 2 3 4 1.00653 0 3 1.00653 0
gene 2 2 15 5.72341 0 24 5.72341 1
gene 2 15 4 -2.98221 0 25 -2.98221 1
gene 3 3 22 1.43979 0 46 1.43979 1
gene 3 22 4 2.57535 0 47 2.57535 1
gene 1 3 26 1.25642 0 59 1.25642 1
gene 3 26 4 3.09735 0 60 3.09735 1
genomeend 72

/* Organism #73 Fitness: 8.96537 Error: 1.00578 */
genomestart 73
trait 1 0.1 0 0.0170471 0 0.0124589 0.0231704 0.0124879 0 
trait 2 0.180981 0 0 0 0 0 0.350896 0 
trait 3 0.3 0 0 0 0 0 0 0 
node 1 1 1 3
node 2 1 1 1
node 3 1 1 1
node 4 1 0 2
node 15 1 0 0
node 22 1 0 0
node 26 1 0 0
gene 1 1 4 -2.5453 0 1 -2.5453 1
gene 2 2 4 4.4838 0 2 4.4838 1
gene 3 3 4 3.00251 0 3 3.00251 0
gene 2 2 15 4.7489 0 24 4.7489 1
gene 2 15 4 -2.41703 0 25 -2.41703 1
gene 3 3 22 1.54954 0 46 1.54954 1
gene 3 22 4 2.42007 0 47 2.42007 1
gene 1 3 26 0.766945 0 59 0.766945 1
gene 3 26 4 2.96125 0 60 2.96125 1
genomeend 73

/* Organism #74 Fitness: 8.98554 Error: 1.00241 */
genomestart 74
trait 1 0.1 0 0.0170471 0 0.0124589 0.0231704 0.0124879 0 
trait 2 0.180981 0 0 0 0 0 0.350896 0 
trait 3 0.3 0 0 0 0 0 0 0 
node 1 1 1 3
node 2 1 1 1
node 3 1 1 1
node 4 1 0 2
node 15 1 0 0
node 22 1 0 0
node 26 1 0 0
gene 1 1 4 -2.53909 0 1 -2.53909 1
gene 2 2 4 5.17414 0 2 5.17414 1
gene 3 3 4 1.95977 0 3 1.95977 1
gene 2 2 15 4.84524 0 24 4.84524 1
gene 2 15 4 -2.92838 0 25 -2.92838 1
gene 3 3 22 2.17279 0 46 2.17279 1
gene 3 22 4 3.24168 0 47 3.24168 1
gene 1 3 26 1.46619 0 59 1.46619 1
gene 3 26 4 2.317 0 60 2.317 1
genomeend 74

/* Organism #75 Fitness: 4.66769 Error: 1.83952 */
genomestart 75
trait 1 0.1 0 0.0170471 0 0.0124589 0.0231704 0.0124879 0 
trait 2 0.180981 0 0 0 0 0 0.350896 0 
trait 3 0.3 0 0 0 0 0 0 0 
node 1 1 1 3
node 2 1 1 1
node 3 1 1 1
node 4 1 0 2
node 15 1 0 0
node 22 1 0 0
node 26 1 0 0
gene 1 1 4 -0.234848 0 1 -0.234848 1
gene 2 2 4 5.48245 0 2 5.48245 1
gene 2 3 4 1.85122 0 3 1.85122 0
gene 2 2 15 5.72341 0 24 5.72341 1
gene 2 15 4 -2.67422 0 25 -2.67422 1
gene 3 3 22 1.60581 0 46 1.60581 1
gene 3 22 4 4.398 0 47 4.398 1
gene 1 3 26 0.266392 0 59 0.266392 1
gene 3 26 4 -0.582078 0 60 -0.582078 1
genomeend 75

/* Organism #76 Fitness: 8.95809 Error: 1.00699 */
genomestart 76
trait 1 0.1 0 0.0170471 0 0.0124589 0.0231704 0.0124879 0 
trait 2 0.180981 0 0 0 0 0 0.350896 0 
trait 3 0.3 0 0 0 0 0 0 0 
node 1 1 1 3
node 2 1 1 1
node 3 1 1 1
node 4 1 0 2
node 15 1 0 0
node 22 1 0 0
node 26 1 0 0
gene 1 1 4 -1.60597 0 1 -1.60597 1
gene 2 2 4 6.9294 0 2 6.9294 1
gene 2 3 4 0.781884 0 3 0.781884 0
gene 2 2 15 4.15279 0 24 4.15279 1
gene 2 15 4 -4.51027 0 25 -4.51027 1
gene 3 3 22 1.39998 0 46 1.39998 1
gene 3 22 4 3.88331 0 47 3.88331 1
gene 1 3 26 3.43061 0 59 3.43061 1
gene 3 26 4 1.01841 0 60 1.01841 1
genomeend 76

/* Organism #77 Fitness: 4.03151 Error: 1.99214 */
genomestart 77
trait 1 0.1 0 0.0170471 0 0.0124589 0.0231704 0.0124879 0 
trait 2 0.180981 0 0 0 0 0 0.350896 0 
trait 3 0.3 0 0 0 0 0 0 0 
node 1 1 1 3
node 2 1 1 1
node 3 1 1 1
node 4 1 0 2
node 15 1 0 0
node 22 1 0 0
node 26 1 0 0
gene 1 1 4 -3.78957 0 1 -3.78957 1
gene 2 2 4 4.53688 0 2 4.53688 1
gene 2 3 4 3.02815 0 3 3.02815 0
gene 2 2 15 5.98003 0 24 5.98003 1
gene 2 15 4 -4.91192 0 25 -4.91192 1
gene 3 3 22 -0.9424 0 46 -0.9424 1
gene 3 22 4 4.54262 0 47 4.54262 1
gene 1 3 26 0.522717 0 59 0.522717 1
gene 3 26 4 1.82209 0 60 1.82209 1
genomeend 77

/* Organism #78 Fitness: 5.61252 Error: 1.63092 */
genomestart 78
trait 1 0.1 0 0.0170471 0 0.0124589 0.0231704 0.0124879 0 
trait 2 0.180981 0 0 0 0 0 0.350896 0 
trait 3 0.3 0 0 0 0 0 0 0 
node 1 1 1 3
node 2 1 1 1
node 3 1 1 1
node 4 1 0 2
node 15 1 0 0
node 22 1 0 0
node 26 1 0 0
gene 1 1 4 -2.1292 0 1 -2.1292 1
gene 2 2 4 6.82907 0 2 6.82907 1
gene 2 3 4 -0.641322 0 3 -0.641322 0
gene 2 2 15 3.87073 0 24 3.87073 1
gene 2 15 4 -2.91578 0 25 -2.91578 1
gene 3 3 22 1.06752 0 46 1.06752 1
gene 3 22 4 1.70829 0 47 1.70829 1
gene 1 3 26 3.16963 0 59 3.16963 1
gene 3 26 4 1.77887 0 60 1.77887 1
genomeend 78

/* Organism #79 Fitness: 3.99945 Error: 2.00014 */
genomestart 79
trait 1 0.1 0 0.0170471 0 0.0124589 0.0231704 0.0124879 0 
trait 2 0.180981 0 0 0 0 0 0.350896 0 
trait 3 0.3 0 0 0 0 0 0 0 
node 1 1 1 3
node 2 1 1 1
node 3 1 1 1
node 4 1 0 2
node 15 1 0 0
node 22 1 0 0
node 26 1 0 0
gene 1 1 4 -3.09028 0 1 -3.09028 1
gene 2 2 4 2.40361 0 2 2.40361 1
gene 2 3 4 3.3981 0 3 3.3981 0
gene 2 2 15 4.67376 0 24 4.67376 1
gene 2 15 4 -1.56039 0 25 -1.56039 1
gene 3 3 22 0.630394 0 46 0.630394 1
gene 2 22 4 -1.61572 0 47 -1.61572 1
gene 1 3 26 2.15666 0 59 2.15666 1
gene 3 26 4 2.04554 0 60 2.04554 1
genomeend 79

/* Organism #80 Fitness: 8.98621 Error: 1.0023 */
genomestart 80
trait 1 0.1 0 0.0170471 0 0.0124589 0.0231704 0.0124879 0 
trait 2 0.180981 0 0 0 0 0 0.350896 0 
trait 3 0.3 0 0 0 0 0 0 0 
node 1 1 1 3
node 2 1 1 1
node 3 1 1 1
node 4 1 0 2
node 15 1 0 0
node 22 1 0 0
node 26 1 0 0
gene 1 1 4 -2.63769 0 1 -2.63769 1
gene 2 2 4 4.75608 0 2 4.75608 1
gene 2 3 4 1.00653 0 3 1.00653 0
gene 2 2 15 5.72341 0 24 5.72341 1
gene 2 15 4 -2.98221 0 25 -2.98221 1
gene 3 3 22 1.43979 0 46 1.43979 1
gene 3 22 4 2.57535 0 47 2.57535 1
gene 1 3 26 1.25642 0 59 1.25642 1
gene 3 26 4 3.09735 0 60 3.09735 1
genomeend 80

/* Species #13 : (Size 12) (AF 7.94144) (Age 13)  */


/* Organism #81 Fitness: 9 Error: 1 */
genomestart 81
trait 1 0.1 0 0.0260032 0.10562 0.0052561 0.0108611 0.0361964 0 
trait 2 0.245854 0 0 0 0.034853 0 0.00560647 0 
trait 3 0 0.716835 0.106308 0 0 0.0700083 0.0838012 0 
node 1 1 1 3
node 2 1 1 1
node 3 1 1 1
node 4 1 0 2
node 29 1 0 0
gene 1 1 4 -4.58588 0 1 -4.58588 1
gene 2 2 4 9.83365 0 2 9.83365 1
gene 3 3 4 -11.6161 0 3 -11.6161 1
gene 3 3 29 6.08654 0 72 6.08654 1
gene 3 29 4 -1.77264 0 73 -1.77264 1
genomeend 81

/* Organism #82 Fitness: 9 Error: 1 */
genomestart 82
trait 1 0.1 0 0.0260032 0.10562 0.0052561 0.0108611 0.0361964 0 
trait 2 0.245854 0 0 0 0.034853 0 0.00560647 0 
trait 3 0 0.716835 0.106308 0 0 0.0700083 0.0838012 0 
node 1 1 1 3
node 2 1 1 1
node 3 1 1 1
node 4 1 0 2
node 29 1 0 0
gene 1 1 4 -4.58588 0 1 -4.58588 1
gene 2 2 4 9.83365 0 2 9.83365 1
gene 3 3 4 -9.81326 0 3 -9.81326 1
gene 3 3 29 -2.27533 0 72 -2.27533 1
gene 3 29 4 -0.509024 0 73 -0.509024 1
genomeend 82

/* Organism #83 Fitness: 9 Error: 1 */
genomestart 83
trait 1 0.1 0 0.0260032 0.10562 0.0052561 0.0108611 0.0361964 0 
trait 2 0.245854 0 0 0 0.034853 0 0.00560647 0 
trait 3 0 0.716835 0.106308 0 0 0.0700083 0.0838012 0 
node 1 1 1 3
node 2 1 1 1
node 3 1 1 1
node 4 1 0 2
node 29 1 0 0
gene 1 1 4 -4.8 0 1 -4.8 1
gene 2 2 4 11.5897 0 2 11.5897 1
gene 3 3 4 -13.3348 0 3 -13.3348 1
gene 3 3 29 3.74117 0 72 3.74117 1
gene 3 29 4 -1.15125 0 73 -1.15125 1
genomeend 83

/* Organism #84 Fitness: 9 Error: 1 */
genomestart 84
trait 1 0.1 0 0.0260032 0.10562 0.0052561 0.0108611 0.0361964 0 
trait 2 0.245854 0 0 0 0.034853 0 0.00560647 0 
trait 3 0 0.716835 0.106308 0 0 0.0700083 0.0838012 0 
node 1 1 1 3
node 2 1 1 1
node 3 1 1 1
node 4 1 0 2
node 29 1 0 0
gene 1 1 4 -3.48646 0 1 -3.48646 1
gene 2 2 4 8.4646 0 2 8.4646 1
gene 3 3 4 -10.6556 0 3 -10.6556 1
gene 3 3 29 4.16978 0 72 4.16978 1
gene 3 29 4 -1.45854 0 73 -1.45854 1
genomeend 84

/* Organism #85 Fitness: 8.99998 Error: 1 */
genomestart 85
trait 1 0.1 0 0.0260032 0.10562 0.0052561 0.0108611 0.0361964 0 
trait 2 0.245854 0 0 0 0.034853 0 0.00560647 0 
trait 3 0 0.716835 0.106308 0 0 0.0700083 0.0838012 0 
node 1 1 1 3
node 2 1 1 1
node 3 1 1 1
node 4 1 0 2
node 29 1 0 0
gene 1 1 4 -5.06134 0 1 -5.06134 1
gene 2 2 4 9.41786 0 2 9.41786 1
gene 3 3 4 -9.81326 0 3 -9.81326 1
gene 3 3 29 6.08654 0 72 6.08654 1
gene 3 29 4 -1.77264 0 73 -1.77264 1
gene 1 1 29 4.42535 0 175 4.42535 1
genomeend 85

/* Organism #86 Fitness: 4 Error: 2 */
genomestart 86
trait 1 0.1 0 0.0260032 0.10562 0.0052561 0.0108611 0.0361964 0 
trait 2 0.245854 0 0 0 0.034853 0 0.00560647 0 
trait 3 0 0.716835 0.106308 0 0 0.0700083 0.0838012 0 
node 1 1 1 3
node 2 1 1 1
node 3 1 1 1
node 4 1 0 2
node 29 1 0 0
gene 1 1 4 -3.41096 0 1 -3.41096 1
gene 2 2 4 -1.43343 0 2 -1.43343 1
gene 3 3 4 -11.5289 0 3 -11.5289 1
gene 3 3 29 4.09897 0 72 4.09897 1
gene 3 29 4 -2.8859 0 73 -2.8859 1
genomeend 86

/* Organism #87 Fitness: 1.29732 Error: 2.861 */
genomestart 87
trait 1 0.1 0 0.0260032 0.10562 0.0052561 0.0108611 0.0361964 0 
trait 2 0.245854 0 0 0 0.034853 0 0.00560647 0 
trait 3 0 0.716835 0.106308 0 0 0.0700083 0.0838012 0 
node 1 1 1 3
node 2 1 1 1
node 3 1 1 1
node 4 1 0 2
node 29 1 0 0
gene 1 1 4 2.33051 0 1 2.33051 1
gene 2 2 4 7.05429 0 2 7.05429 1
gene 3 3 4 -0.850414 0 3 -0.850414 1
gene 3 3 29 3.12655 0 72 3.12655 1
gene 3 29 4 -1.85212 0 73 -1.85212 1
genomeend 87

/* Organism #88 Fitness: 9 Error: 1 */
genomestart 88
trait 1 0.1 0 0.0260032 0.10562 0.0052561 0.0108611 0.0361964 0 
trait 2 0.245854 0 0 0 0.034853 0 0.00560647 0 
trait 3 0 0.716835 0.106308 0 0 0.0700083 0.0838012 0 
node 1 1 1 3
node 2 1 1 1
node 3 1 1 1
node 4 1 0 2
node 29 1 0 0
gene 1 1 4 -5.37663 0 1 -5.37663 1
gene 2 2 4 9.3577 0 2 9.3577 1
gene 3 3 4 -12.7808 0 3 -12.7808 1
gene 3 3 29 3.35445 0 72 3.35445 1
gene 3 29 4 -1.13379 0 73 -1.13379 1
genomeend 88

/* Organism #89 Fitness: 9 Error: 1 */
genomestart 89
trait 1 0.1 0 0.0260032 0.10562 0.0052561 0.0108611 0.0361964 0 
trait 2 0.245854 0 0 0 0.034853 0 0.00560647 0 
trait 3 0 0.716835 0.106308 0 0 0.0700083 0.0838012 0 
node 1 1 1 3
node 2 1 1 1
node 3 1 1 1
node 4 1 0 2
node 29 1 0 0
gene 1 1 4 -4.05277 0 1 -4.05277 1
gene 2 2 4 9.60709 0 2 9.60709 1
gene 3 3 4 -12.6261 0 3 -12.6261 1
gene 3 3 29 1.46089 0 72 1.46089 1
gene 3 29 4 -0.355252 0 73 -0.355252 1
genomeend 89

/* Organism #90 Fitness: 9 Error: 1 */
genomestart 90
trait 1 0.1 0 0.0260032 0.10562 0.0052561 0.0108611 0.0361964 0 
trait 2 0.245854 0 0 0 0.034853 0 0.00560647 0 
trait 3 0 0.716835 0.106308 0 0 0.0700083 0.0838012 0 
node 1 1 1 3
node 2 1 1 1
node 3 1 1 1
node 4 1 0 2
node 29 1 0 0
gene 1 1 4 -4.56462 0 1 -4.56462 1
gene 2 2 4 10.4278 0 2 10.4278 1
gene 3 3 4 -12.1338 0 3 -12.1338 1
gene 3 3 29 4.40758 0 72 4.40758 1
gene 3 29 4 0.618085 0 73 0.618085 1
genomeend 90

/* Organism #91 Fitness: 9 Error: 1 */
genomestart 91
trait 1 0.1 0 0.0260032 0.10562 0.0052561 0.0108611 0.0361964 0 
trait 2 0.245854 0 0 0 0.034853 0 0.00560647 0 
trait 3 0 0.716835 0.106308 0 0 0.0700083 0.0838012 0 
node 1 1 1 3
node 2 1 1 1
node 3 1 1 1
node 4 1 0 2
node 29 1 0 0
gene 1 1 4 -4.58588 0 1 -4.58588 1
gene 2 2 4 9.83365 0 2 9.83365 1
gene 3 3 4 -11.6161 0 3 -11.6161 1
gene 3 3 29 6.08654 0 72 6.08654 1
gene 3 29 4 -1.77264 0 73 -1.77264 1
genomeend 91

/* Organism #92 Fitness: 9 Error: 1 */
genomestart 92
trait 1 0.1 0 0.0260032 0.10562 0.0052561 0.0108611 0.0361964 0 
trait 2 0.245854 0 0 0 0.034853 0 0.00560647 0 
trait 3 0 0.716835 0.106308 0 0 0.0700083 0.0838012 0 
node 1 1 1 3
node 2 1 1 1
node 3 1 1 1
node 4 1 0 2
node 29 1 0 0
gene 1 1 4 -2.80177 0 1 -2.80177 1
gene 2 2 4 10.7642 0 2 10.7642 1
gene 3 3 4 -12.7021 0 3 -12.7021 1
gene 3 3 29 4.2062 0 72 4.2062 1
gene 3 29 4 -2.0613 0 73 -2.0613 1
genomeend 92

/* Species #14 : (Size 9) (AF 7.88917) (Age 12)  */


/* Organism #93 Fitness: 9 Error: 1 */
genomestart 93
trait 1 0.1 0.207464 0.0119863 0 0.00876017 0.127669 0.00526834 0 
trait 2 0.197531 0 0 0.0411759 0.0076241 0 0.0182758 0.144753 
trait 3 0.3 0.0300499 0.097449 0 0 0.0641742 0.0768177 0 
node 1 1 1 3
node 2 1 1 1
node 3 2 1 1
node 4 1 0 2
node 21 1 0 0
node 32 1 0 0
gene 1 1 4 -12.4274 0 1 -12.4274 1
gene 2 2 4 4.65756 0 2 4.65756 1
gene 3 3 4 8.79464 0 3 8.79464 1
gene 1 3 21 1.42033 0 42 1.42033 1
gene 1 21 4 2.80779 0 43 2.80779 1
gene 2 2 32 2.19859 0 80 2.19859 1
gene 2 32 4 13.1915 0 81 13.1915 1
genomeend 93

/* Organism #94 Fitness: 4.0026 Error: 1.99935 */
genomestart 94
trait 1 1.08963 0 0 0 0.450209 0.127669 0 0 
trait 2 0.197531 0 0 0.0411759 0.0076241 0 0.0182758 0.144753 
trait 3 0.3 0.0300499 0.097449 0 0 0.0641742 0.0768177 0 
node 1 1 1 3
node 2 1 1 1
node 3 2 1 1
node 4 1 0 2
node 21 1 0 0
node 32 1 0 0
gene 1 1 4 -12.4274 0 1 -12.4274 1
gene 2 2 4 6.15801 0 2 6.15801 1
gene 3 3 4 6.24885 0 3 6.24885 1
gene 1 3 21 -0.312653 0 42 -0.312653 1
gene 1 21 4 0.616815 0 43 0.616815 1
gene 2 2 32 4.31168 0 80 4.31168 1
gene 2 32 4 9.15883 0 81 9.15883 1
genomeend 94

/* Organism #95 Fitness: 9 Error: 1 */
genomestart 95
trait 1 0.1 0.207464 0.0119863 0 0.00876017 0.127669 0.00526834 0 
trait 2 0.197531 0 0 0.0411759 0.0076241 0 0.0182758 0.144753 
trait 3 0.3 0.0300499 0.097449 0 0 0.0641742 0.0768177 0 
node 1 1 1 3
node 2 1 1 1
node 3 2 1 1
node 4 1 0 2
node 21 1 0 0
node 32 1 0 0
gene 1 1 4 -12.4274 0 1 -12.4274 1
gene 2 2 4 4.65756 0 2 4.65756 1
gene 3 3 4 8.79464 0 3 8.79464 1
gene 1 3 21 0.753005 0 42 0.753005 1
gene 1 21 4 5.7577 0 43 5.7577 1
gene 2 2 32 2.19859 0 80 2.19859 1
gene 2 32 4 13.1915 0 81 13.1915 1
genomeend 95

/* Organism #96 Fitness: 9 Error: 1 */
genomestart 96
trait 1 1.08963 0 0 0 0.450209 0.127669 0 0 
trait 2 0.197531 0 0 0.0411759 0.0076241 0 0.0182758 0.144753 
trait 3 0.3 0.0300499 0.097449 0 0 0.0641742 0.0768177 0 
node 1 1 1 3
node 2 1 1 1
node 3 2 1 1
node 4 1 0 2
node 21 1 0 0
node 32 1 0 0
gene 1 1 4 -11.6148 0 1 -11.6148 1
gene 2 2 4 4.101 0 2 4.101 1
gene 3 3 4 6.72151 0 3 6.72151 1
gene 1 3 21 1.86009 0 42 1.86009 1
gene 1 21 4 1.90326 0 43 1.90326 1
gene 2 2 32 2.19859 0 80 2.19859 1
gene 2 32 4 11.9825 0 81 11.9825 1
genomeend 96

/* Organism #97 Fitness: 9 Error: 1 */
genomestart 97
trait 1 0.594816 0.103732 0.00599314 0 0.229485 0.127669 0.00263417 0 
trait 2 0.197531 0 0 0.0411759 0.0076241 0 0.0182758 0.144753 
trait 3 0.3 0.0300499 0.097449 0 0 0.0641742 0.0768177 0 
node 1 1 1 3
node 2 1 1 1
node 3 2 1 1
node 4 1 0 2
node 21 1 0 0
node 32 1 0 0
gene 1 1 4 -13.2906 0 1 -13.2906 1
gene 2 2 4 3.82684 0 2 3.82684 1
gene 3 3 4 9.27929 0 3 9.27929 1
gene 1 3 21 -0.388193 0 42 -0.388193 1
gene 1 21 4 5.15395 0 43 5.15395 1
gene 2 2 32 0.424725 0 80 0.424725 1
gene 2 32 4 14.0522 0 81 14.0522 1
genomeend 97

/* Organism #98 Fitness: 9 Error: 1 */
genomestart 98
trait 1 0.1 0.207464 0.0119863 0 0.00876017 0.127669 0.00526834 0 
trait 2 0.197531 0 0 0.0411759 0.0076241 0 0.0182758 0.144753 
trait 3 0.3 0.0300499 0.097449 0 0 0.0641742 0.0768177 0 
node 1 1 1 3
node 2 1 1 1
node 3 2 1 1
node 4 1 0 2
node 21 1 0 0
node 32 1 0 0
gene 1 1 4 -14.6817 0 1 -14.6817 1
gene 2 2 4 6.83495 0 2 6.83495 1
gene 3 3 4 11.2823 0 3 11.2823 1
gene 1 3 21 0.932857 0 42 0.932857 1
gene 1 21 4 3.40228 0 43 3.40228 1
gene 2 2 32 2.23195 0 80 2.23195 1
gene 2 32 4 13.8295 0 81 13.8295 1
genomeend 98

/* Organism #99 Fitness: 9 Error: 1 */
genomestart 99
trait 1 0.1 0.207464 0.0119863 0 0.00876017 0.127669 0.00526834 0 
trait 2 0.197531 0 0 0.0411759 0.0076241 0 0.0182758 0.144753 
trait 3 0.3 0.0300499 0.097449 0 0 0.0641742 0.0768177 0 
node 1 1 1 3
node 2 1 1 1
node 3 2 1 1
node 4 1 0 2
node 21 1 0 0
node 32 1 0 0
gene 1 1 4 -11.6363 0 1 -11.6363 1
gene 2 2 4 6.68107 0 2 6.68107 1
gene 3 3 4 10.0079 0 3 10.0079 1
gene 1 3 21 2.44515 0 42 2.44515 1
gene 1 21 4 0.500694 0 43 0.500694 1
gene 2 2 32 1.61773 0 80 1.61773 1
gene 2 32 4 10.8236 0 81 10.8236 1
genomeend 99

/* Organism #100 Fitness: 4 Error: 2 */
genomestart 100
trait 1 0.1 0.207464 0.0119863 0 0.00876017 0.127669 0.00526834 0 
trait 2 0.197531 0 0 0.0411759 0.0076241 0 0.0182758 0.144753 
trait 3 0.3 0.0300499 0.097449 0 0 0.0641742 0.0768177 0 
node 1 1 1 3
node 2 1 1 1
node 3 2 1 1
node 4 1 0 2
node 21 1 0 0
node 32 1 0 0
gene 1 1 4 2.49987 0 1 2.49987 1
gene 2 2 4 5.26738 0 2 5.26738 1
gene 3 3 4 8.79464 0 3 8.79464 1
gene 1 3 21 1.42033 0 42 1.42033 1
gene 1 21 4 4.55535 0 43 4.55535 1
gene 2 2 32 2.81131 0 80 2.81131 1
gene 2 32 4 10.7196 0 81 10.7196 1
genomeend 100

/* Organism #101 Fitness: 8.99994 Error: 1.00001 */
genomestart 101
trait 1 0.594816 0.103732 0.00599314 0 0.229485 0.127669 0.00263417 0 
trait 2 0.197531 0 0 0.0411759 0.0076241 0 0.0182758 0.144753 
trait 3 0.3 0.0300499 0.097449 0 0 0.0641742 0.0768177 0 
node 1 1 1 3
node 2 1 1 1
node 3 2 1 1
node 4 1 0 2
node 21 1 0 0
node 32 1 0 0
gene 1 1 4 -13.1089 0 1 -13.1089 1
gene 2 2 4 8.09685 0 2 8.09685 1
gene 3 3 4 6.72151 0 3 6.72151 1
gene 1 3 21 -0.0381139 0 42 -0.0381139 1
gene 1 21 4 5.71082 0 43 5.71082 1
gene 2 2 32 4.54236 0 80 4.54236 1
gene 2 32 4 12.2876 0 81 12.2876 1
genomeend 101

/* Species #15 : (Size 13) (AF 6.89649) (Age 10)  */


/* Organism #102 Fitness: 9 Error: 1 */
genomestart 102
trait 1 0.1 0.051866 0.020643 0 0.015087 0.0559022 0.00712201 0 
trait 2 0.213095 0 0 0.0205879 0.0147036 0 0.00236523 0 
trait 3 0.3 0.00774014 0.0251005 0 0 0.0165297 0.0197864 0 
node 1 2 1 3
node 2 1 1 1
node 3 3 1 1
node 4 1 0 2
gene 1 1 4 -5.10747 0 1 -5.10747 1
gene 2 2 4 10.2628 0 2 10.2628 1
gene 3 3 4 12.1092 0 3 12.1092 1
genomeend 102

/* Organism #103 Fitness: 9 Error: 1 */
genomestart 103
trait 1 0.1 0.051866 0.020643 0 0.015087 0.0559022 0.00712201 0 
trait 2 0.213095 0 0 0.0205879 0.0147036 0 0.00236523 0 
trait 3 0.3 0.00774014 0.0251005 0 0 0.0165297 0.0197864 0 
node 1 2 1 3
node 2 1 1 1
node 3 3 1 1
node 4 1 0 2
gene 1 1 4 -5.10747 0 1 -5.10747 1
gene 2 2 4 10.2628 0 2 10.2628 1
gene 3 3 4 12.1092 0 3 12.1092 1
genomeend 103

/* Organism #104 Fitness: 4.55609 Error: 1.8655 */
genomestart 104
trait 1 0.1 0.051866 0.020643 0 0.015087 0.0559022 0.00712201 0 
trait 2 0.213095 0 0 0.0205879 0.0147036 0 0.00236523 0 
trait 3 0.3 0.00774014 0.0251005 0 0 0.0165297 0.0197864 0 
node 1 2 1 3
node 2 1 1 1
node 3 3 1 1
node 4 1 0 2
node 57 1 0 0
gene 1 1 4 -4.41067 0 1 -4.41067 1
gene 2 2 4 9.57749 0 2 9.57749 0
gene 3 3 4 11.2946 0 3 11.2946 1
gene 2 2 57 1 0 173 0 1
gene 2 57 4 9.57749 0 174 0 1
genomeend 104

/* Organism #105 Fitness: 9 Error: 1 */
genomestart 105
trait 1 0.1 0.051866 0.020643 0 0.015087 0.0559022 0.00712201 0 
trait 2 0.213095 0 0 0.0205879 0.0147036 0 0.00236523 0 
trait 3 0.3 0.00774014 0.0251005 0 0 0.0165297 0.0197864 0 
node 1 2 1 3
node 2 1 1 1
node 3 3 1 1
node 4 1 0 2
gene 1 1 4 -5.10747 0 1 -5.10747 1
gene 2 2 4 10.2628 0 2 10.2628 1
gene 3 3 4 12.1092 0 3 12.1092 1
genomeend 105

/* Organism #106 Fitness: 4 Error: 2 */
genomestart 106
trait 1 0.1 0.051866 0.020643 0 0.015087 0.0559022 0.00712201 0 
trait 2 0.213095 0 0 0.0205879 0.0147036 0 0.00236523 0 
trait 3 0.3 0.00774014 0.0251005 0 0 0.0165297 0.0197864 0 
node 1 2 1 3
node 2 1 1 1
node 3 1 1 1
node 4 1 0 2
gene 1 1 4 -3.1265 0 1 -3.1265 1
gene 2 2 4 -0.210616 0 2 -0.210616 1
gene 3 3 4 10.0805 0 3 10.0805 1
genomeend 106

/* Organism #107 Fitness: 9 Error: 1 */
genomestart 107
trait 1 0.1 0.051866 0.020643 0 0.015087 0.0559022 0.00712201 0 
trait 2 0.213095 0 0 0.0205879 0.0147036 0 0.00236523 0 
trait 3 0.3 0.00774014 0.0251005 0 0 0.0165297 0.0197864 0 
node 1 2 1 3
node 2 1 1 1
node 3 3 1 1
node 4 1 0 2
gene 1 1 4 -5.10747 0 1 -5.10747 1
gene 2 2 4 10.2628 0 2 10.2628 1
gene 3 3 4 14.0667 0 3 14.0667 1
genomeend 107

/* Organism #108 Fitness: 6.11957 Error: 1.52622 */
genomestart 108
trait 1 0.1 0.051866 0.020643 0 0.015087 0.0559022 0.00712201 0 
trait 2 0.213095 0 0 0.0205879 0.0147036 0 0.00236523 0 
trait 3 0.3 0.00774014 0.0251005 0 0 0.0165297 0.0197864 0 
node 1 2 1 3
node 2 1 1 1
node 3 3 1 1
node 4 1 0 2
gene 1 1 4 -0.398187 0 1 -0.398187 1
gene 2 2 4 12.2556 0 2 12.2556 1
gene 3 3 4 0.478126 0 3 0.478126 1
genomeend 108

/* Organism #109 Fitness: 9 Error: 1 */
genomestart 109
trait 1 0.1 0.051866 0.020643 0 0.015087 0.0559022 0.00712201 0 
trait 2 0.213095 0 0 0.0205879 0.0147036 0 0.00236523 0 
trait 3 0.289673 0.127466 0.445475 0.466166 0 0 0.0197864 0 
node 1 2 1 3
node 2 1 1 1
node 3 3 1 1
node 4 1 0 2
gene 1 1 4 -4.75907 0 1 -4.75907 1
gene 2 2 4 9.92016 0 2 9.92016 1
gene 3 3 4 11.7019 0 3 11.7019 1
genomeend 109

/* Organism #110 Fitness: 9 Error: 1 */
genomestart 110
trait 1 0.1 0.051866 0.020643 0 0.015087 0.0559022 0.00712201 0 
trait 2 0.213095 0 0 0.0205879 0.0147036 0 0.00236523 0 
trait 3 0.3 0.00774014 0.0251005 0 0 0.0165297 0.0197864 0 
node 1 2 1 3
node 2 1 1 1
node 3 3 1 1
node 4 1 0 2
gene 1 1 4 -5.24417 0 1 -5.24417 1
gene 2 2 4 8.56014 0 2 8.56014 1
gene 3 3 4 10.958 0 3 10.958 1
genomeend 110

/* Organism #111 Fitness: 9 Error: 1 */
genomestart 111
trait 1 0.1 0.051866 0.020643 0 0.015087 0.0559022 0.00712201 0 
trait 2 0.213095 0 0 0.0205879 0.0147036 0 0.00236523 0 
trait 3 0.3 0.00774014 0.0251005 0 0 0.0165297 0.0197864 0 
node 1 2 1 3
node 2 1 1 1
node 3 3 1 1
node 4 1 0 2
gene 1 1 4 -5.10747 0 1 -5.10747 1
gene 2 2 4 10.2628 0 2 10.2628 1
gene 3 3 4 12.1092 0 3 12.1092 1
genomeend 111

/* Organism #112 Fitness: 2.63479 Error: 2.3768 */
genomestart 112
trait 1 0 0.0176024 0.0284094 0.123223 0.0467332 0.0359781 0.0381457 0.656115 
trait 2 0.216902 0.0105892 0 0.0772047 0.0401627 0.00426913 0.00689129 0 
trait 3 0.26538 0.0127485 0.118933 0 0 0.0505615 0.0605231 0.0452605 
node 1 1 1 3
node 2 1 1 1
node 3 1 1 1
node 4 1 0 2
gene 1 1 4 0.122806 0 1 0.122806 1
gene 2 2 4 14.1688 0 2 14.1688 1
gene 3 3 4 -0.324849 0 3 -0.324849 1
genomeend 112

/* Organism #113 Fitness: 5.29179 Error: 1.69961 */
genomestart 113
trait 1 0.1 0.0176024 0.0284094 0.123223 0.0467332 0.0155676 0.0381457 0 
trait 2 0.216902 0.0105892 0 0.0772047 0.0401627 0.00426913 0.00689129 0 
trait 3 0.26538 0.0127485 0.118933 0 0 0.0505615 0.0605231 0.0452605 
node 1 1 1 3
node 2 1 1 1
node 3 1 1 1
node 4 1 0 2
gene 1 1 4 0.171587 0 1 0.171587 1
gene 2 2 4 15.7989 0 2 15.7989 1
gene 3 3 4 1.6851 0 3 1.6851 1
genomeend 113

/* Organism #114 Fitness: 4.05219 Error: 1.98699 */
genomestart 114
trait 1 0.1 0.051866 0.020643 0 0.015087 0.0559022 0.00712201 0 
trait 2 0.213095 0 0 0.0205879 0.0147036 0 0.00236523 0 
trait 3 0.3 0.00774014 0.0251005 0 0 0.0165297 0.0197864 0 
node 1 2 1 3
node 2 1 1 1
node 3 3 1 1
node 4 1 0 2
gene 1 1 4 -2.47993 0 1 -2.47993 1
gene 2 2 4 1.68227 0 2 1.68227 1
gene 3 3 4 3.50781 0 3 3.50781 1
genomeend 114

/* Species #16 : (Size 10) (AF 7.99185) (Age 10)  */


/* Organism #115 Fitness: 9 Error: 1 */
genomestart 115
trait 1 0.1 0.0791831 0.0725176 0 0 0.0231704 0 0 
trait 2 0.490135 0.469011 0 0 0 0.119688 0 0 
trait 3 0.340276 0 0 0 0 0 0.292577 0 
node 1 1 1 3
node 2 1 1 1
node 3 1 1 1
node 4 1 0 2
node 15 3 0 0
node 37 1 0 0
gene 1 1 4 -8.33802 0 1 -8.33802 1
gene 2 2 4 9.29972 0 2 9.29972 1
gene 3 3 4 9.62682 0 3 9.62682 1
gene 2 2 15 4.36742 0 24 4.36742 1
gene 2 15 4 0.81785 0 25 0.81785 1
gene 1 3 15 1.68454 0 30 1.68454 1
gene 1 1 15 -10.4954 0 88 -10.4954 1
gene 2 2 37 0.307555 0 98 0.307555 1
gene 2 37 4 7.92776 0 99 7.92776 1
gene 1 37 15 -3.89666 0 170 -3.89666 1
genomeend 115

/* Organism #116 Fitness: 9 Error: 1 */
genomestart 116
trait 1 0.1 0.0791831 0.0725176 0 0 0.0231704 0 0 
trait 2 0.490135 0.469011 0 0.350256 0 0.119688 0 0 
trait 3 0.344304 0 0 0 0 0 0.321834 0 
node 1 1 1 3
node 2 1 1 1
node 3 1 1 1
node 4 1 0 2
node 15 3 0 0
node 37 1 0 0
gene 1 1 4 -7.95822 0 1 -7.95822 1
gene 2 2 4 6.14947 0 2 6.14947 1
gene 3 3 4 7.35845 0 3 7.35845 1
gene 2 2 15 0.177716 0 24 0.177716 0
gene 2 15 4 -0.32079 0 25 -0.32079 1
gene 1 3 15 1.2884 0 30 1.2884 1
gene 1 1 15 -8.99365 0 88 -8.99365 1
gene 2 2 37 1.07263 0 98 1.07263 1
gene 2 37 4 9.57249 0 99 9.57249 1
gene 1 37 15 -3.13278 0 170 -3.13278 1
genomeend 116

/* Organism #117 Fitness: 8.98564 Error: 1.0024 */
genomestart 117
trait 1 0.1 0.0791831 0.0725176 0 0 0.0231704 0 0 
trait 2 0.490135 0.469011 0 0 0 0.119688 0 0 
trait 3 0.340276 0 0 0 0 0 0.292577 0 
node 1 1 1 3
node 2 1 1 1
node 3 1 1 1
node 4 1 0 2
node 15 3 0 0
node 37 1 0 0
gene 1 1 4 -6.34408 0 1 -6.34408 1
gene 2 2 4 11.0118 0 2 11.0118 1
gene 3 3 4 9.66118 0 3 9.66118 1
gene 2 2 15 3.56106 0 24 3.56106 1
gene 2 15 4 2.20532 0 25 2.20532 1
gene 1 3 15 2.18837 0 30 2.18837 1
gene 1 1 15 -12.8626 0 88 -12.8626 1
gene 2 2 37 -0.489106 0 98 -0.489106 1
gene 2 37 4 10.2383 0 99 10.2383 1
gene 1 37 15 -5.41924 0 170 -5.41924 1
genomeend 117

/* Organism #118 Fitness: 8.93741 Error: 1.01045 */
genomestart 118
trait 1 0.1 0.0791831 0.0725176 0 0 0.0231704 0 0 
trait 2 0.490135 0.469011 0 0 0 0.119688 0 0 
trait 3 0.340276 0 0 0 0 0 0.292577 0 
node 1 1 1 3
node 2 1 1 1
node 3 1 1 1
node 4 1 0 2
node 15 3 0 0
node 37 1 0 0
gene 1 1 4 -8.33802 0 1 -8.33802 1
gene 2 2 4 9.29972 0 2 9.29972 1
gene 3 3 4 9.62682 0 3 9.62682 1
gene 2 2 15 4.36742 0 24 4.36742 1
gene 2 15 4 0.81785 0 25 0.81785 1
gene 1 3 15 1.68454 0 30 1.68454 1
gene 1 1 15 -10.4954 0 88 -10.4954 1
gene 2 2 37 0.307555 0 98 0.307555 1
gene 2 37 4 7.92776 0 99 7.92776 1
gene 1 37 15 -3.89666 0 170 -3.89666 1
gene 1 1 37 -4.75245 0 176 -4.75245 1
genomeend 118

/* Organism #119 Fitness: 8.99988 Error: 1.00002 */
genomestart 119
trait 1 0.1 0.0791831 0.0725176 0 0 0.0231704 0 0 
trait 2 0.490135 0.469011 0 0 0 0.119688 0 0 
trait 3 0.344304 0 0 0 0 0 0.321834 0 
node 1 1 1 3
node 2 1 1 1
node 3 1 1 1
node 4 1 0 2
node 15 3 0 0
node 37 2 0 0
gene 1 1 4 -5.52599 0 1 -5.52599 1
gene 2 2 4 8.63541 0 2 8.63541 1
gene 3 3 4 6.57952 0 3 6.57952 1
gene 2 2 15 4.50208 0 24 4.50208 0
gene 2 15 4 3.85029 0 25 3.85029 1
gene 1 3 15 -0.424996 0 30 -0.424996 1
gene 1 1 15 -11.1849 0 88 -11.1849 1
gene 2 2 37 -1.36017 0 98 -1.36017 1
gene 2 37 4 6.63933 0 99 6.63933 1
gene 1 37 15 -5.02192 0 170 -5.02192 1
genomeend 119

/* Organism #120 Fitness: 9 Error: 1 */
genomestart 120
trait 1 0.1 0.0791831 0.0725176 0 0 0.0231704 0 0 
trait 2 0.490135 0.469011 0 0 0 0.119688 0 0 
trait 3 0.344304 0 0 0 0 0 0.321834 0 
node 1 1 1 3
node 2 1 1 1
node 3 1 1 1
node 4 1 0 2
node 15 3 0 0
node 37 1 0 0
gene 1 1 4 -8.59857 0 1 -8.59857 1
gene 2 2 4 5.37407 0 2 5.37407 1
gene 3 3 4 10.6568 0 3 10.6568 1
gene 2 2 15 6.68557 0 24 6.68557 1
gene 2 15 4 1.65608 0 25 1.65608 1
gene 1 3 15 2.88861 0 30 2.88861 1
gene 1 1 15 -8.02935 0 88 -8.02935 1
gene 2 2 37 2.75552 0 98 2.75552 1
gene 2 37 4 9.92987 0 99 9.92987 1
gene 1 37 15 -3.89666 0 170 -3.89666 1
genomeend 120

/* Organism #121 Fitness: 3.99558 Error: 2.0011 */
genomestart 121
trait 1 0.1 0.0791831 0.0725176 0 0 0.0231704 0 0 
trait 2 0.490135 0.469011 0 0 0 0.119688 0 0 
trait 3 0.348331 0 0 0 0 0 0.351092 0 
node 1 1 1 3
node 2 1 1 1
node 3 1 1 1
node 4 1 0 2
node 15 1 0 0
node 37 1 0 0
gene 1 1 4 -2.01668 0 1 -2.01668 1
gene 2 2 4 8.3078 0 2 8.3078 1
gene 3 3 4 -1.1342 0 3 -1.1342 1
gene 2 2 15 1.43201 0 24 1.43201 0
gene 2 15 4 -1.01752 0 25 -1.01752 1
gene 1 3 15 0.0957505 0 30 0.0957505 1
gene 2 1 15 -10.5373 0 88 -10.5373 1
gene 2 2 37 1.47018 0 98 1.47018 1
gene 2 37 4 9.06502 0 99 9.06502 1
genomeend 121

/* Organism #122 Fitness: 9 Error: 1 */
genomestart 122
trait 1 0.1 0.0791831 0.0725176 0 0 0.0231704 0 0 
trait 2 0.490135 0.469011 0 0 0 0.119688 0 0 
trait 3 0.348331 0 0 0 0 0 0.351092 0 
node 1 1 1 3
node 2 1 1 1
node 3 1 1 1
node 4 1 0 2
node 15 1 0 0
node 37 1 0 0
gene 1 1 4 -7.78491 0 1 -7.78491 1
gene 2 2 4 5.98543 0 2 5.98543 1
gene 3 3 4 8.39156 0 3 8.39156 1
gene 2 2 15 4.19169 0 24 4.19169 0
gene 2 15 4 1.1097 0 25 1.1097 1
gene 1 3 15 2.84024 0 30 2.84024 1
gene 1 1 15 -6.35895 0 88 -6.35895 1
gene 2 2 37 1.39877 0 98 1.39877 1
gene 2 37 4 9.75845 0 99 9.75845 1
genomeend 122

/* Organism #123 Fitness: 4 Error: 2 */
genomestart 123
trait 1 0.1 0.0791831 0.0725176 0 0 0.0231704 0 0 
trait 2 0.490135 0.469011 0 0 0 0.119688 0 0 
trait 3 0.348331 0 0 0 0 0 0.351092 0 
node 1 1 1 3
node 2 1 1 1
node 3 1 1 1
node 4 1 0 2
node 15 3 0 0
node 37 1 0 0
gene 1 1 4 0.0247499 0 1 0.0247499 1
gene 2 2 4 6.6562 0 2 6.6562 1
gene 3 3 4 11.013 0 3 11.013 1
gene 2 2 15 4.36742 0 24 4.36742 1
gene 2 15 4 0.81785 0 25 0.81785 1
gene 3 3 15 0.576932 0 30 0.576932 1
gene 1 1 15 -0.0153085 0 88 -0.0153085 1
gene 2 2 37 -0.0404664 0 98 -0.0404664 1
gene 2 37 4 6.79036 0 99 6.79036 1
genomeend 123

/* Organism #124 Fitness: 9 Error: 1 */
genomestart 124
trait 1 0.1 0.0791831 0.0725176 0 0 0.0231704 0 0 
trait 2 0.490135 0.469011 0 0 0 0.119688 0 0 
trait 3 0.340276 0 0 0 0 0 0.292577 0 
node 1 1 1 3
node 2 1 1 1
node 3 1 1 1
node 4 1 0 2
node 15 3 0 0
node 37 1 0 0
gene 1 1 4 -7.95233 0 1 -7.95233 1
gene 2 2 4 11.4824 0 2 11.4824 1
gene 3 3 4 9.45088 0 3 9.45088 1
gene 2 2 15 1.98414 0 24 1.98414 1
gene 2 15 4 2.65733 0 25 2.65733 1
gene 1 3 15 1.01022 0 30 1.01022 1
gene 1 1 15 -9.98639 0 88 -9.98639 1
gene 2 2 37 1.3921 0 98 1.3921 1
gene 2 37 4 6.64048 0 99 6.64048 1
gene 1 37 15 -3.89666 0 170 -3.89666 1
genomeend 124

/* Species #17 : (Size 9) (AF 7.25883) (Age 10)  */


/* Organism #125 Fitness: 8.9996 Error: 1.00007 */
genomestart 125
trait 1 0.1 0 0.0170471 0 0.0124589 0.0231704 0.0124879 0 
trait 2 0.2 0 0 0 0 0 0 0 
trait 3 0.3 0 0 0 0 0 0 0 
node 1 1 1 3
node 2 3 1 1
node 3 1 1 1
node 4 1 0 2
node 15 2 0 0
node 23 1 0 0
gene 1 1 4 -2.76435 0 1 -2.76435 1
gene 2 2 4 5.82269 0 2 5.82269 1
gene 3 3 4 3.33721 0 3 3.33721 1
gene 2 2 15 3.33759 0 24 3.33759 1
gene 2 15 4 -0.748612 0 25 -0.748612 1
gene 2 15 23 -0.338246 0 49 -0.338246 1
gene 2 23 4 2.22044 0 50 2.22044 1
gene 2 2 23 0.716065 0 82 0.716065 1
gene 1 1 15 -0.307514 0 88 -0.307514 1
gene 2 3 15 -5.00912 0 103 -5.00912 1
gene 1 3 23 9.29565 0 159 9.29565 1
genomeend 125

/* Organism #126 Fitness: 4.41915 Error: 1.89782 */
genomestart 126
trait 1 0.1 0 0.0170471 0 0.0124589 0.0231704 0.0124879 0 
trait 2 0.2 0 0 0 0 0 0 0 
trait 3 0.3 0 0 0 0 0 0 0 
node 1 1 1 3
node 2 1 1 1
node 3 1 1 1
node 4 1 0 2
node 15 2 0 0
node 23 1 0 0
gene 1 1 4 -4.16323 0 1 -4.16323 1
gene 2 2 4 2.81577 0 2 2.81577 1
gene 3 3 4 3.91473 0 3 3.91473 1
gene 2 2 15 5.20962 0 24 5.20962 1
gene 2 15 4 -0.8048 0 25 -0.8048 1
gene 2 15 23 2.32969 0 49 2.32969 1
gene 2 23 4 1.71257 0 50 1.71257 1
gene 2 2 23 1.95404 0 82 1.95404 1
gene 1 1 15 -0.0828545 0 88 -0.0828545 1
gene 2 3 15 -1.27555 0 103 -1.27555 1
gene 1 3 23 7.43223 0 159 7.43223 1
gene 1 1 23 1.74053 0 171 1.74053 1
genomeend 126

/* Organism #127 Fitness: 1.90939 Error: 2.61819 */
genomestart 127
trait 1 0.790016 0 0.0170471 0 0.0100565 0 0.0124879 0 
trait 2 0.2 0 0 0 0 0 0 0 
trait 3 0.3 0 0 0 0 0 0 0 
node 1 1 1 3
node 2 1 1 1
node 3 1 1 1
node 4 1 0 2
node 15 2 0 0
node 23 1 0 0
gene 1 1 4 -3.42713 0 1 -3.42713 1
gene 2 2 4 -0.742488 0 2 -0.742488 1
gene 3 3 4 4.33891 0 3 4.33891 1
gene 2 2 15 3.4532 0 24 3.4532 1
gene 2 15 4 1.16525 0 25 1.16525 1
gene 2 15 23 0.800295 0 49 0.800295 1
gene 2 23 4 2.43658 0 50 2.43658 1
gene 2 2 23 2.21645 0 82 2.21645 1
gene 1 1 15 0.857005 0 88 0.857005 1
gene 2 3 15 -7.34521 0 103 -7.34521 1
gene 1 3 23 10.4073 0 159 10.4073 1
gene 1 1 23 0.354515 0 171 0.354515 1
genomeend 127

/* Organism #128 Fitness: 8.9387 Error: 1.01023 */
genomestart 128
trait 1 0.1 0 0.0170471 0 0.0124589 0.0231704 0.0124879 0 
trait 2 0.2 0 0 0 0 0 0 0 
trait 3 0.3 0 0 0 0 0 0 0 
node 1 1 1 3
node 2 2 1 1
node 3 1 1 1
node 4 1 0 2
node 15 2 0 0
node 23 1 0 0
gene 1 1 4 -0.871936 0 1 -0.871936 1
gene 2 2 4 4.32901 0 2 4.32901 1
gene 3 3 4 3.36724 0 3 3.36724 1
gene 2 2 15 4.5613 0 24 4.5613 1
gene 2 15 4 -0.0718766 0 25 -0.0718766 1
gene 2 15 23 1.36211 0 49 1.36211 1
gene 2 23 4 1.90378 0 50 1.90378 1
gene 2 2 23 2.7985 0 82 2.7985 1
gene 1 1 15 1.00721 0 88 1.00721 1
gene 2 3 15 -2.71563 0 103 -2.71563 1
gene 1 3 23 11.6594 0 159 11.6594 1
gene 1 1 23 -2.33585 0 171 -2.33585 1
genomeend 128

/* Organism #129 Fitness: 8.99365 Error: 1.00106 */
genomestart 129
trait 1 0.1 0 0.0170471 0 0.0124589 0.0231704 0.0124879 0 
trait 2 0.2 0 0 0 0 0 0 0 
trait 3 0.3 0 0 0 0 0 0 0 
node 1 1 1 3
node 2 3 1 1
node 3 1 1 1
node 4 1 0 2
node 15 2 0 0
node 23 1 0 0
gene 1 1 4 -2.36634 0 1 -2.36634 1
gene 2 2 4 5.82269 0 2 5.82269 1
gene 3 3 4 3.33721 0 3 3.33721 1
gene 2 2 15 3.33759 0 24 3.33759 1
gene 2 15 4 -0.748612 0 25 -0.748612 1
gene 2 15 23 -0.338246 0 49 -0.338246 1
gene 2 23 4 1.71257 0 50 1.71257 1
gene 2 2 23 0.716065 0 82 0.716065 1
gene 1 1 15 0.857005 0 88 0.857005 1
gene 2 3 15 -4.85075 0 103 -4.85075 1
gene 1 3 23 9.29565 0 159 9.29565 1
gene 1 1 23 8.91163 0 177 8.91163 1
genomeend 129

/* Organism #130 Fitness: 7.83883 Error: 1.20021 */
genomestart 130
trait 1 0.1 0 0.0170471 0 0.0124589 0.0231704 0.0124879 0 
trait 2 0.2 0 0 0 0 0 0 0 
trait 3 0.3 0 0 0 0 0 0 0 
node 1 1 1 3
node 2 1 1 1
node 3 1 1 1
node 4 1 0 2
node 15 2 0 0
node 23 1 0 0
gene 1 1 4 -2.5496 0 1 -2.5496 1
gene 2 2 4 3.28193 0 2 3.28193 1
gene 3 3 4 4.44713 0 3 4.44713 1
gene 2 2 15 3.34212 0 24 3.34212 1
gene 2 15 4 1.75178 0 25 1.75178 1
gene 2 15 23 2.69534 0 49 2.69534 1
gene 2 23 4 4.28711 0 50 4.28711 1
gene 2 2 23 3.40637 0 82 3.40637 1
gene 1 1 15 -0.983636 0 88 -0.983636 1
gene 2 3 15 -6.92841 0 103 -6.92841 1
gene 1 3 23 8.05154 0 159 8.05154 1
genomeend 130

/* Organism #131 Fitness: 6.35624 Error: 1.47884 */
genomestart 131
trait 1 0.1 0 0.0170471 0 0.0124589 0.0231704 0.0124879 0 
trait 2 0.2 0 0 0 0 0 0 0 
trait 3 0.3 0 0 0 0 0 0 0 
node 1 1 1 3
node 2 1 1 1
node 3 1 1 1
node 4 1 0 2
node 15 2 0 0
node 23 1 0 0
gene 1 1 4 -1.70193 0 1 -1.70193 1
gene 2 2 4 4.65984 0 2 4.65984 1
gene 3 3 4 3.32637 0 3 3.32637 1
gene 2 2 15 2.52053 0 24 2.52053 1
gene 2 15 4 -1.19976 0 25 -1.19976 1
gene 2 15 23 2.13344 0 49 2.13344 1
gene 2 23 4 3.05775 0 50 3.05775 1
gene 2 2 23 -0.661585 0 82 -0.661585 1
gene 1 1 15 -0.76183 0 88 -0.76183 1
gene 2 3 15 -5.00912 0 103 -5.00912 1
gene 1 3 23 9.29565 0 159 9.29565 1
genomeend 131

/* Organism #132 Fitness: 8.92106 Error: 1.01319 */
genomestart 132
trait 1 0.1 0 0.0170471 0 0.0124589 0.0231704 0.0124879 0 
trait 2 0.2 0 0 0 0 0 0 0 
trait 3 0.3 0 0 0 0 0 0 0 
node 1 1 1 3
node 2 1 1 1
node 3 1 1 1
node 4 1 0 2
node 15 2 0 0
node 23 1 0 0
gene 1 1 4 -2.36634 0 1 -2.36634 1
gene 2 2 4 5.12564 0 2 5.12564 1
gene 3 3 4 3.59588 0 3 3.59588 1
gene 2 2 15 3.33759 0 24 3.33759 1
gene 2 15 4 -1.23443 0 25 -1.23443 1
gene 2 15 23 1.22221 0 49 1.22221 1
gene 2 23 4 1.71257 0 50 1.71257 1
gene 2 2 23 1.95404 0 82 1.95404 1
gene 1 1 15 -0.307514 0 88 -0.307514 1
gene 2 3 15 -5.00912 0 103 -5.00912 1
gene 1 3 23 9.29565 0 159 9.29565 1
gene 1 1 23 8.91163 0 177 0 1
genomeend 132

/* Organism #133 Fitness: 8.95281 Error: 1.00788 */
genomestart 133
trait 1 0.1 0 0.0170471 0 0.0124589 0.0231704 0.0124879 0 
trait 2 0.2 0 0 0 0 0 0 0 
trait 3 0.3 0 0 0 0 0 0 0 
node 1 1 1 3
node 2 1 1 1
node 3 1 1 1
node 4 1 0 2
node 15 2 0 0
node 23 1 0 0
gene 1 1 4 -2.77533 0 1 -2.77533 1
gene 2 2 4 5.13733 0 2 5.13733 1
gene 3 3 4 5.88455 0 3 5.88455 1
gene 2 2 15 5.80055 0 24 5.80055 1
gene 2 15 4 0.518234 0 25 0.518234 1
gene 2 15 23 0.337068 0 49 0.337068 1
gene 2 23 4 3.58256 0 50 3.58256 1
gene 2 2 23 0.89478 0 82 0.89478 1
gene 1 1 15 -1.40674 0 88 -1.40674 1
gene 2 3 15 0.111303 0 103 0.111303 1
gene 1 3 23 -0.221731 0 159 -0.221731 1
genomeend 133

/* Species #18 : (Size 7) (AF 6.73651) (Age 8)  */


/* Organism #134 Fitness: 8.82584 Error: 1.02917 */
genomestart 134
trait 1 0.1 0 0.0324679 0.123223 0.00768948 0.0155676 0.043595 0 
trait 2 0.0578406 0 0.218629 0.0205879 0.0428402 0.743831 0.582132 0 
trait 3 0.26538 0.0127485 0.118933 0 0 0.0505615 0.0605231 0.0452605 
node 1 1 1 3
node 2 1 1 1
node 3 1 1 1
node 4 1 0 2
gene 1 1 4 -0.722694 0 1 -0.722694 1
gene 2 2 4 2.04522 0 2 2.04522 1
gene 3 3 4 -17.1416 0 3 -17.1416 1
genomeend 134

/* Organism #135 Fitness: 8.82584 Error: 1.02917 */
genomestart 135
trait 1 0.1 0 0.0324679 0.123223 0.00768948 0.0155676 0.043595 0 
trait 2 0.0578406 0 0.218629 0.0205879 0.0428402 0.743831 0.582132 0 
trait 3 0.26538 0.0127485 0.118933 0 0 0.0505615 0.0605231 0.0452605 
node 1 1 1 3
node 2 1 1 1
node 3 1 1 1
node 4 1 0 2
gene 1 1 4 -0.722694 0 1 -0.722694 1
gene 2 2 4 2.04522 0 2 2.04522 1
gene 3 3 4 -17.1416 0 3 -17.1416 1
genomeend 135

/* Organism #136 Fitness: 3.99993 Error: 2.00002 */
genomestart 136
trait 1 0.1 0 0.0324679 0.123223 0.00768948 0.0155676 0.043595 0 
trait 2 0.0578406 0 0.218629 0.0205879 0.0428402 0.743831 0.582132 0 
trait 3 0.26538 0.0127485 0.118933 0 0 0.0505615 0.0605231 0.0452605 
node 1 1 1 3
node 2 1 1 1
node 3 1 1 1
node 4 1 0 2
gene 1 1 4 -2.22652 0 1 -2.22652 1
gene 2 2 4 -2.07427 0 2 -2.07427 1
gene 3 3 4 -15.1767 0 3 -15.1767 1
genomeend 136

/* Organism #137 Fitness: 3.95213 Error: 2.012 */
genomestart 137
trait 1 0.1 0 0.0324679 0.123223 0.00768948 0.0155676 0.043595 0 
trait 2 0.0578406 0 0.218629 0.0205879 0.0428402 0.743831 0.582132 0 
trait 3 0.26538 0.0127485 0.118933 0 0 0.0505615 0.0605231 0.0452605 
node 1 1 1 3
node 2 1 1 1
node 3 1 1 1
node 4 1 0 2
gene 1 1 4 0.735916 0 1 0.735916 1
gene 2 2 4 -0.0796296 0 2 -0.0796296 1
gene 3 3 4 -15.862 0 3 -15.862 1
genomeend 137

/* Organism #138 Fitness: 8.72603 Error: 1.04601 */
genomestart 138
trait 1 0.1 0 0.0324679 0.123223 0.00768948 0.0155676 0.043595 0 
trait 2 0.0578406 0 0.218629 0.0205879 0.0428402 0.743831 0.582132 0 
trait 3 0.26538 0.0127485 0.118933 0 0 0.0505615 0.0605231 0.0452605 
node 1 1 1 3
node 2 1 1 1
node 3 1 1 1
node 4 1 0 2
gene 1 1 4 -0.615663 0 1 -0.615663 1
gene 2 2 4 4.14835 0 2 4.14835 1
gene 3 3 4 -18.6 0 3 -18.6 1
genomeend 138

/* Organism #139 Fitness: 8.82584 Error: 1.02917 */
genomestart 139
trait 1 0.1 0 0.0324679 0.123223 0.00768948 0.0155676 0.043595 0 
trait 2 0.0578406 0 0.218629 0.0205879 0.0428402 0.743831 0.582132 0 
trait 3 0.26538 0.0127485 0.118933 0 0 0.0505615 0.0605231 0.0452605 
node 1 1 1 3
node 2 1 1 1
node 3 1 1 1
node 4 1 0 2
gene 1 1 4 -0.722694 0 1 -0.722694 1
gene 2 2 4 2.04522 0 2 2.04522 1
gene 3 3 4 -17.1416 0 3 -17.1416 1
genomeend 139

/* Organism #140 Fitness: 3.99999 Error: 2 */
genomestart 140
trait 1 0.1 0.051866 0.020643 0 0.015087 0.0559022 0.00712201 0 
trait 2 0.213095 0 0 0.0205879 0.0147036 0 0.00236523 0 
trait 3 0.3 0.00774014 0.0251005 0 0 0.0165297 0.0197864 0 
node 1 2 1 3
node 2 1 1 1
node 3 3 1 1
node 4 1 0 2
gene 1 1 4 -3.56124 0 1 -3.56124 1
gene 2 2 4 1.08859 0 2 1.08859 1
gene 3 3 4 0.0763012 0 3 0.0763012 1
genomeend 140

/* Species #19 : (Size 3) (AF 4.003) (Age 3)  */


/* Organism #141 Fitness: 4.00899 Error: 1.99775 */
genomestart 141
trait 1 0.1 0.0176024 0.0284094 0.123223 0.0467332 0.0155676 0.0381457 0 
trait 2 0.216902 0.0105892 0 0.0772047 0.0401627 0.00426913 0.00689129 0 
trait 3 0.26538 0.0127485 0.118933 0 0 0.0505615 0.0605231 0.0452605 
node 1 1 1 3
node 2 1 1 1
node 3 1 1 1
node 4 1 0 2
gene 1 1 4 1.23796 0 1 1.23796 1
gene 2 2 4 17.5875 0 2 17.5875 1
gene 3 3 4 2.11199 0 3 2.11199 1
genomeend 141

/* Organism #142 Fitness: 4 Error: 2 */
genomestart 142
trait 1 0.1 0.0176024 0.0284094 0.123223 0.0467332 0.0155676 0.0381457 0 
trait 2 0.216902 0.0105892 0 0.0772047 0.0401627 0.00426913 0.00689129 0 
trait 3 0.26538 0.0127485 0.118933 0 0 0.0505615 0.0605231 0.0452605 
node 1 1 1 3
node 2 1 1 1
node 3 1 1 1
node 4 1 0 2
gene 1 1 4 3.66062 0 1 3.66062 1
gene 2 2 4 -0.50729 0 2 -0.50729 1
gene 3 3 4 2.85264 0 3 2.85264 1
genomeend 142

/* Organism #143 Fitness: 4 Error: 2 */
genomestart 143
trait 1 0.1 0.0176024 0.0284094 0.123223 0.0467332 0.0155676 0.0381457 0 
trait 2 0.216902 0.0105892 0 0.0772047 0.0401627 0.00426913 0.00689129 0 
trait 3 0.26538 0.0127485 0.118933 0 0 0.0505615 0.0605231 0.0452605 
node 1 1 1 3
node 2 1 1 1
node 3 1 1 1
node 4 1 0 2
gene 1 1 4 4.38056 0 1 4.38056 1
gene 2 2 4 15.6531 0 2 15.6531 1
gene 3 3 4 0.454577 0 3 0.454577 1
genomeend 143

/* Species #20 : (Size 5) (AF 4.0003) (Age 2)  */


/* Organism #144 Fitness: 4 Error: 2 */
genomestart 144
trait 1 0.1 0.051866 0.020643 0 0.015087 0.0559022 0.00712201 0 
trait 2 0.213095 0 0 0.0205879 0.0147036 0 0.00236523 0 
trait 3 0.3 0.00774014 0.0251005 0 0 0.0165297 0.0197864 0 
node 1 2 1 3
node 2 1 1 1
node 3 3 1 1
node 4 1 0 2
gene 1 1 4 -5.10747 0 1 -5.10747 1
gene 2 2 4 -2.38023 0 2 -2.38023 1
gene 3 3 4 -0.265443 0 3 -0.265443 1
genomeend 144

/* Organism #145 Fitness: 4.00148 Error: 1.99963 */
genomestart 145
trait 1 0.1 0.051866 0.020643 0 0.015087 0.0559022 0.00712201 0 
trait 2 0.213095 0 0 0.0205879 0.0147036 0 0.00236523 0 
trait 3 0.3 0.00774014 0.0251005 0 0 0.0165297 0.0197864 0 
node 1 2 1 3
node 2 1 1 1
node 3 3 1 1
node 4 1 0 2
gene 1 1 4 -3.56124 0 1 -3.56124 1
gene 2 2 4 -0.714028 0 2 -0.714028 1
gene 3 3 4 1.96331 0 3 1.96331 1
genomeend 145

/* Organism #146 Fitness: 4 Error: 2 */
genomestart 146
trait 1 0.1 0.051866 0.020643 0 0.015087 0.0559022 0.00712201 0 
trait 2 0.213095 0 0 0.0205879 0.0147036 0 0.00236523 0 
trait 3 0.3 0.00774014 0.0251005 0 0 0.0165297 0.0197864 0 
node 1 2 1 3
node 2 1 1 1
node 3 3 1 1
node 4 1 0 2
gene 1 1 4 -5.10747 0 1 -5.10747 1
gene 2 2 4 -2.38023 0 2 -2.38023 1
gene 3 3 4 -0.265443 0 3 -0.265443 1
genomeend 146

/* Organism #147 Fitness: 4 Error: 2 */
genomestart 147
trait 1 0.1 0.051866 0.020643 0 0.015087 0.0559022 0.00712201 0 
trait 2 0.213095 0 0 0.0205879 0.0147036 0 0.00236523 0 
trait 3 0.3 0.00774014 0.0251005 0 0 0.0165297 0.0197864 0 
node 1 2 1 3
node 2 1 1 1
node 3 3 1 1
node 4 1 0 2
gene 1 1 4 -6.43817 0 1 -6.43817 1
gene 2 2 4 -1.44902 0 2 -1.44902 1
gene 3 3 4 -1.13574 0 3 -1.13574 1
genomeend 147

/* Organism #148 Fitness: 4 Error: 2 */
genomestart 148
trait 1 0.1 0.051866 0.020643 0 0.015087 0.0559022 0.00712201 0 
trait 2 0.213095 0 0 0.0205879 0.0147036 0 0.00236523 0 
trait 3 0.3 0.00774014 0.0251005 0 0 0.0165297 0.0197864 0 
node 1 2 1 3
node 2 1 1 1
node 3 3 1 1
node 4 1 0 2
node 57 1 0 0
gene 1 1 4 -5.10747 0 1 -5.10747 1
gene 2 2 4 -2.38023 0 2 -2.38023 0
gene 3 3 4 -0.265443 0 3 -0.265443 1
gene 2 2 57 1 0 173 0 1
gene 2 57 4 -2.38023 0 174 0 1
genomeend 148

/* Species #21 : (Size 1) (AF 1.01874) (Age 1)  */


/* Organism #149 Fitness: 1.01874 Error: 2.99067 */
genomestart 149
trait 1 0.1 0.414928 0 0 0 0.222754 0.00312198 0 
trait 2 0.2 0 0 0 0 0 0 0 
trait 3 0.3 0.0582787 0.188992 0 0 0.124459 0.14898 0 
node 1 1 1 3
node 2 1 1 1
node 3 1 1 1
node 4 3 0 2
node 21 1 0 0
gene 1 1 4 1.52512 0 1 1.52512 1
gene 2 2 4 -2.48442 0 2 -2.48442 1
gene 1 3 4 14.8424 0 3 14.8424 1
gene 1 3 21 -0.726209 0 42 -0.726209 1
gene 1 21 4 1.52132 0 43 1.52132 1
gene 1 2 21 -0.989757 0 154 -0.989757 1
genomeend 149
